{"learner":{"attributes":{"scikit_learn":"{\"_estimator_type\": \"classifier\"}"},"feature_names":[],"feature_types":[],"gradient_booster":{"model":{"gbtree_model_param":{"num_parallel_tree":"1","num_trees":"100"},"iteration_indptr":[0,1,2,3,4,5,6,7,8,9,10,11,12,13,14,15,16,17,18,19,20,21,22,23,24,25,26,27,28,29,30,31,32,33,34,35,36,37,38,39,40,41,42,43,44,45,46,47,48,49,50,51,52,53,54,55,56,57,58,59,60,61,62,63,64,65,66,67,68,69,70,71,72,73,74,75,76,77,78,79,80,81,82,83,84,85,86,87,88,89,90,91,92,93,94,95,96,97,98,99,100],"tree_info":[0,0,0,0,0,0,0,0,0,0,0,0,0,0,0,0,0,0,0,0,0,0,0,0,0,0,0,0,0,0,0,0,0,0,0,0,0,0,0,0,0,0,0,0,0,0,0,0,0,0,0,0,0,0,0,0,0,0,0,0,0,0,0,0,0,0,0,0,0,0,0,0,0,0,0,0,0,0,0,0,0,0,0,0,0,0,0,0,0,0,0,0,0,0,0,0,0,0,0,0],"trees":[{"base_weights":[5.4415523E-8,-7.4182856E-1,1.0107957E0,-1.3900505E0,-6.405206E-2,-5.7875323E-1,1.2532628E0,-1.6852919E0,-9.152054E-1,-1.5510087E0,2.8761962E-1,-1.3290071E0,5.495483E-1,8.3415145E-1,1.7150104E0,-1.781423E0,-3.963351E-1,3.609014E-1,-1.1016023E0,-6.583355E-2,-5.0865287E-1,-7.3219717E-1,7.005115E-1,-1.703579E-1,-4.788024E-1,-9.90004E-2,3.4393013E-1,2.9806846E-1,1.2305988E0,1.7605832E0,1.6459158E-1,-5.505513E-1,-1.1910044E-1,-3.3250117E-1,1.2090047E-1,-1.4529744E0,-4.5705378E-1,-1.7742516E-1,-3.8443062E-1,8.848454E-1,-8.197098E-1,4.6667447E-3,3.4855437E-1,-1.1910044E-1,1.3611001E0,1.812851E0,1.2090047E-1,-4.875028E-1,6.750025E-2,2.0110093E-1,-2.987159E-1,-3.5910136E-1,6.7944825E-2,3.092758E-1,-1.703579E-1,-3.8086516E-1,9.0001326E-4,2.4120124E-1,-1.0772787E-1,4.514277E-1,-5.3591114E-2,2.318087E-1,5.6007236E-1],"categories":[],"categories_nodes":[],"categories_segments":[],"categories_sizes":[],"default_left":[0,0,0,0,0,0,0,0,0,0,0,0,0,0,0,0,0,0,0,0,0,0,0,0,0,0,0,0,0,0,0,0,0,0,0,0,0,0,0,0,0,0,0,0,0,0,0,0,0,0,0,0,0,0,0,0,0,0,0,0,0,0,0],"id":0,"left_children":[1,3,5,7,9,11,13,15,17,19,21,23,25,27,29,31,33,-1,35,-1,-1,37,39,-1,-1,-1,-1,41,43,45,-1,-1,-1,-1,-1,47,49,51,-1,53,55,57,-1,-1,59,61,-1,-1,-1,-1,-1,-1,-1,-1,-1,-1,-1,-1,-1,-1,-1,-1,-1],"loss_changes":[1.5146619E2,5.109488E1,3.3677956E1,6.799095E0,3.0775307E1,1.0888446E1,1.2986832E1,3.6926956E0,1.1195866E1,1.7925472E0,2.061908E1,6.1788654E-1,3.265757E0,8.346817E0,8.679123E-1,1.7083435E0,2.5808864E0,0E0,4.6580753E0,0E0,0E0,4.1146193E0,1.0393131E1,0E0,0E0,0E0,0E0,4.7464447E0,5.478718E0,1.5932693E0,0E0,0E0,0E0,0E0,0E0,4.6234894E0,6.588477E0,3.6685653E0,0E0,7.2166996E0,1.5766768E0,4.6501865E0,0E0,0E0,5.079815E0,3.1454468E-1,0E0,0E0,0E0,0E0,0E0,0E0,0E0,0E0,0E0,0E0,0E0,0E0,0E0,0E0,0E0,0E0,0E0],"parents":[2147483647,0,0,1,1,2,2,3,3,4,4,5,5,6,6,7,7,8,8,9,9,10,10,11,11,12,12,13,13,14,14,15,15,16,16,18,18,21,21,22,22,27,27,28,28,29,29,35,35,36,36,37,37,39,39,40,40,41,41,44,44,45,45],"right_children":[2,4,6,8,10,12,14,16,18,20,22,24,26,28,30,32,34,-1,36,-1,-1,38,40,-1,-1,-1,-1,42,44,46,-1,-1,-1,-1,-1,48,50,52,-1,54,56,58,-1,-1,60,62,-1,-1,-1,-1,-1,-1,-1,-1,-1,-1,-1,-1,-1,-1,-1,-1,-1],"split_conditions":[8.075646E-2,-4.390002E-1,-6.205098E-1,-5.1646758E-2,-7.845797E-1,6.422151E-1,9.5413655E-1,-1.2819972E-2,-1.2659156E0,-1.5574908E0,-7.6143146E-1,1.9862154E-1,-2.4421817E-1,-1.8808109E-1,2.8145654E0,6.329424E-1,-7.923203E-1,3.609014E-1,8.911628E-3,-6.583355E-2,-5.0865287E-1,4.0062666E-1,9.5614076E-1,-1.703579E-1,-4.788024E-1,-9.90004E-2,3.4393013E-1,1.2077034E0,-3.067038E-1,1.7473705E0,1.6459158E-1,-5.505513E-1,-1.1910044E-1,-3.3250117E-1,1.2090047E-1,7.036344E-1,2.2820036E-1,2.5512071E-2,-3.8443062E-1,1.1868693E0,-4.9310294E-1,-5.3884868E-2,3.4855437E-1,-1.1910044E-1,8.605601E-1,-9.939604E-1,1.2090047E-1,-4.875028E-1,6.750025E-2,2.0110093E-1,-2.987159E-1,-3.5910136E-1,6.7944825E-2,3.092758E-1,-1.703579E-1,-3.8086516E-1,9.0001326E-4,2.4120124E-1,-1.0772787E-1,4.514277E-1,-5.3591114E-2,2.318087E-1,5.6007236E-1],"split_indices":[1,7,5,5,5,1,1,1,2,5,1,2,3,6,6,0,7,0,6,0,0,2,2,0,0,0,0,5,5,5,0,0,0,0,0,2,5,0,0,3,3,2,0,0,1,6,0,0,0,0,0,0,0,0,0,0,0,0,0,0,0,0,0],"split_type":[0,0,0,0,0,0,0,0,0,0,0,0,0,0,0,0,0,0,0,0,0,0,0,0,0,0,0,0,0,0,0,0,0,0,0,0,0,0,0,0,0,0,0,0,0,0,0,0,0,0,0,0,0,0,0,0,0,0,0,0,0,0,0],"sum_hessian":[1.9999876E2,1.1549928E2,8.449947E1,5.8499638E1,5.6999645E1,1.0999931E1,7.349954E1,3.4499786E1,2.3999851E1,1.0249936E1,4.674971E1,6.49996E0,4.4999723E0,3.9999752E1,3.3499794E1,3.1749804E1,2.7499828E0,1.4999907E0,2.249986E1,1.2499923E0,8.999945E0,1.3249918E1,3.3499794E1,2.4999845E0,3.9999752E0,1.9999876E0,2.4999845E0,1.774989E1,2.2249863E1,3.1749804E1,1.7499892E0,3.0249813E1,1.4999907E0,1.2499923E0,1.4999907E0,1.3749915E1,8.749946E0,7.249955E0,5.999963E0,3.0249813E1,3.24998E0,1.3999913E1,3.7499766E0,1.4999907E0,2.0749872E1,3.0249813E1,1.4999907E0,1.2499923E1,1.2499923E0,2.7499828E0,5.999963E0,1.4999907E0,5.749964E0,2.7749828E1,2.4999845E0,1.7499892E0,1.4999907E0,3.9999752E0,9.999938E0,1.8999882E1,1.7499892E0,2.2499862E0,2.7999826E1],"tree_param":{"num_deleted":"0","num_feature":"8","num_nodes":"63","size_leaf_vector":"1"}},{"base_weights":[-6.2891007E-3,-5.696943E-1,7.618199E-1,-1.1050564E0,-1.1036516E-1,-4.5342278E-1,9.502445E-1,-4.41794E-1,-8.338813E-1,-1.3118691E0,1.4743775E-1,-1.0563351E0,4.36659E-1,6.4214426E-1,1.362651E0,2.3542129E-1,-9.499956E-1,-9.229336E-2,-4.3099132E-1,-5.7015073E-1,5.459122E-1,-4.4894546E-1,-3.833696E-1,-7.936144E-2,2.764813E-1,6.0798243E-2,1.0329589E0,1.4152236E0,9.06046E-2,-1.0116829E0,8.753401E-2,-1.1908429E0,-1.3988638E-1,7.5904983E-1,-5.2662516E-1,-1.7157738E-1,-3.7675075E-2,3.709241E-1,-2.1921526E-1,-2.6374426E-1,1.1845089E0,1.4606994E0,1.3953625E-1,-3.2521045E-1,-4.773159E-2,-3.7581228E-2,-4.4460973E-1,-2.6499453E-1,7.231031E-2,3.4299803E-1,2.2241175E-2,-3.114935E-1,1.4928016E-1,2.0041516E-2,-3.7231305E-1,8.558552E-2,-2.0913109E-1,2.5774089E-1,4.3589157E-1,4.4710395E-1,1.3666506E-1],"categories":[],"categories_nodes":[],"categories_segments":[],"categories_sizes":[],"default_left":[0,0,0,0,0,0,0,0,0,0,0,0,0,0,0,0,0,0,0,0,0,0,0,0,0,0,0,0,0,0,0,0,0,0,0,0,0,0,0,0,0,0,0,0,0,0,0,0,0,0,0,0,0,0,0,0,0,0,0,0,0],"id":1,"left_children":[1,3,5,7,9,11,13,-1,15,17,19,21,23,25,27,-1,29,-1,-1,31,33,35,-1,-1,-1,37,39,41,-1,43,-1,45,47,49,51,-1,-1,-1,53,55,57,59,-1,-1,-1,-1,-1,-1,-1,-1,-1,-1,-1,-1,-1,-1,-1,-1,-1,-1,-1],"loss_changes":[8.382649E1,2.7354542E1,1.919946E1,3.9041977E0,1.9165367E1,6.7291265E0,8.182724E0,0E0,6.747364E0,9.26424E-1,1.498791E1,4.0272427E-1,2.088242E0,9.63722E0,1.2226219E0,0E0,2.612318E0,0E0,0E0,4.858167E0,8.060668E0,6.659901E-2,0E0,0E0,0E0,6.2707615E0,5.3173122E0,5.2705383E-1,0E0,1.6189575E0,0E0,2.163125E0,3.6805842E0,7.381218E0,3.7377167E0,0E0,0E0,0E0,4.6332145E0,1.027566E0,7.594719E-1,1.0123825E-1,0E0,0E0,0E0,0E0,0E0,0E0,0E0,0E0,0E0,0E0,0E0,0E0,0E0,0E0,0E0,0E0,0E0,0E0,0E0],"parents":[2147483647,0,0,1,1,2,2,3,3,4,4,5,5,6,6,8,8,9,9,10,10,11,11,12,12,13,13,14,14,16,16,19,19,20,20,21,21,25,25,26,26,27,27,29,29,31,31,32,32,33,33,34,34,38,38,39,39,40,40,41,41],"right_children":[2,4,6,8,10,12,14,-1,16,18,20,22,24,26,28,-1,30,-1,-1,32,34,36,-1,-1,-1,38,40,42,-1,44,-1,46,48,50,52,-1,-1,-1,54,56,58,60,-1,-1,-1,-1,-1,-1,-1,-1,-1,-1,-1,-1,-1,-1,-1,-1,-1,-1,-1],"split_conditions":[8.075646E-2,-5.273302E-1,-6.205098E-1,-6.205098E-1,-8.378839E-1,6.422151E-1,1.047713E0,-4.41794E-1,-1.2659156E0,-1.6907513E0,-6.67855E-1,1.9862154E-1,-2.4421817E-1,-2.6234016E-1,1.2591485E0,2.3542129E-1,1.2904251E0,-9.229336E-2,-4.3099132E-1,-6.1191386E-1,8.551382E-1,2.0552506E-1,-3.833696E-1,-7.936144E-2,2.764813E-1,-7.609028E-1,-8.327845E-1,1.7473705E0,9.06046E-2,8.0463696E-1,8.753401E-2,-9.9087244E-1,3.292272E-1,-1.687807E-1,7.878946E-1,-1.7157738E-1,-3.7675075E-2,3.709241E-1,1.4463284E0,-2.2488545E-1,7.092901E-1,2.2330146E0,1.3953625E-1,-3.2521045E-1,-4.773159E-2,-3.7581228E-2,-4.4460973E-1,-2.6499453E-1,7.231031E-2,3.4299803E-1,2.2241175E-2,-3.114935E-1,1.4928016E-1,2.0041516E-2,-3.7231305E-1,8.558552E-2,-2.0913109E-1,2.5774089E-1,4.3589157E-1,4.4710395E-1,1.3666506E-1],"split_indices":[1,7,5,5,5,1,1,0,2,5,1,2,3,7,2,0,6,0,0,6,2,1,0,0,0,2,6,5,0,2,0,3,0,1,5,0,0,0,4,5,7,1,0,0,0,0,0,0,0,0,0,0,0,0,0,0,0,0,0,0,0],"split_type":[0,0,0,0,0,0,0,0,0,0,0,0,0,0,0,0,0,0,0,0,0,0,0,0,0,0,0,0,0,0,0,0,0,0,0,0,0,0,0,0,0,0,0,0,0,0,0,0,0,0,0,0,0,0,0,0,0,0,0,0,0],"sum_hessian":[1.9170068E2,1.1073516E2,8.096552E1,5.0486176E1,6.024898E1,1.067981E1,7.028571E1,1.955197E1,3.0934206E1,9.921351E0,5.032763E1,6.2556515E0,4.424158E0,4.1694046E1,2.8591671E1,1.6851461E0,2.924906E1,1.4794472E0,8.441904E0,1.7814945E1,3.2512684E1,2.480879E0,3.7747724E0,1.9946017E0,2.4295566E0,1.722581E1,2.4468237E1,2.6922869E1,1.6688024E0,2.8041353E1,1.2077075E0,6.569784E0,1.1245161E1,2.7366604E1,5.1460814E0,1.2404395E0,1.2404395E0,2.6566243E0,1.4569184E1,2.4829707E0,2.1985266E1,2.5180227E1,1.7426413E0,2.5597595E1,2.4437585E0,1.7169653E0,4.8528185E0,3.362941E0,7.88222E0,1.7102036E1,1.0264567E1,3.4225025E0,1.7235792E0,1.2113196E1,2.4559875E0,1.2460372E0,1.2369335E0,1.1838002E1,1.01472645E1,2.3989927E1,1.1902994E0],"tree_param":{"num_deleted":"0","num_feature":"8","num_nodes":"61","size_leaf_vector":"1"}},{"base_weights":[-8.154798E-3,-8.109793E-1,3.3595893E-1,-1.1370074E0,-4.4734806E-1,-7.535086E-1,5.032806E-1,-3.9601442E-1,-6.513898E-1,-6.9543135E-1,3.3467E-1,-9.711091E-1,1.7886098E-1,3.5815287E-2,8.322231E-1,-3.7400723E-1,-5.4281667E-2,1.1606435E-1,-7.919873E-1,-1.747797E-1,6.9296855E-1,4.2173355E-3,-1.0611619E0,-1.08436264E-1,2.0885465E-1,-2.4748991E-1,9.790508E-1,9.1441345E-1,-1.6072986E-1,5.248934E-1,-2.642436E-1,-1.0105404E0,-2.1195729E-1,-4.5621465E-3,3.2443544E-1,-1.1099092E0,-7.88934E-2,1.3450609E-1,-7.2122586E-1,-8.9146234E-2,3.8747165E-1,9.4926316E-1,-9.503066E-2,-7.498598E-1,2.541694E-1,-4.0045593E-2,2.473477E-1,-3.337012E-1,2.1985259E-2,1.9539155E-1,-1.4943016E-1,-8.734416E-2,-3.5227937E-1,-1.21312134E-1,1.57602E-1,-3.151844E-1,1.1025528E-1,2.3327845E-1,3.987612E-1,-3.367727E-1,-2.8546765E-2],"categories":[],"categories_nodes":[],"categories_segments":[],"categories_sizes":[],"default_left":[0,0,0,0,0,0,0,0,0,0,0,0,0,0,0,0,0,0,0,0,0,0,0,0,0,0,0,0,0,0,0,0,0,0,0,0,0,0,0,0,0,0,0,0,0,0,0,0,0,0,0,0,0,0,0,0,0,0,0,0,0],"id":2,"left_children":[1,3,5,7,9,11,13,-1,15,17,19,21,23,25,27,-1,29,-1,31,-1,33,-1,35,-1,-1,37,39,41,43,45,-1,47,49,-1,-1,51,-1,53,55,-1,-1,57,-1,59,-1,-1,-1,-1,-1,-1,-1,-1,-1,-1,-1,-1,-1,-1,-1,-1,-1],"loss_changes":[4.95231E1,5.8672256E0,2.3255762E1,1.6030083E0,5.484982E0,3.644638E0,1.6790428E1,0E0,3.3301463E0,2.488182E0,2.7684412E0,1.2592926E0,1.3925381E0,1.25947275E1,5.383236E0,0E0,3.2473276E0,0E0,2.257227E0,0E0,1.5655563E0,0E0,2.0867443E-1,0E0,0E0,6.6744184E0,4.7227087E0,2.8495827E0,4.0529547E0,9.0839326E-1,0E0,1.6145267E0,1.9549541E0,0E0,0E0,2.805996E-1,0E0,4.6277604E0,6.2610435E0,0E0,0E0,2.7507553E0,0E0,9.0898657E-1,0E0,0E0,0E0,0E0,0E0,0E0,0E0,0E0,0E0,0E0,0E0,0E0,0E0,0E0,0E0,0E0,0E0],"parents":[2147483647,0,0,1,1,2,2,3,3,4,4,5,5,6,6,8,8,9,9,10,10,11,11,12,12,13,13,14,14,16,16,18,18,20,20,22,22,25,25,26,26,27,27,28,28,29,29,31,31,32,32,35,35,37,37,38,38,41,41,43,43],"right_children":[2,4,6,8,10,12,14,-1,16,18,20,22,24,26,28,-1,30,-1,32,-1,34,-1,36,-1,-1,38,40,42,44,46,-1,48,50,-1,-1,52,-1,54,56,-1,-1,58,-1,60,-1,-1,-1,-1,-1,-1,-1,-1,-1,-1,-1,-1,-1,-1,-1,-1,-1],"split_conditions":[-5.742786E-1,1.9133016E-1,-7.845797E-1,-2.6234016E-1,9.366575E-1,7.981758E-1,-2.6234016E-1,-3.9601442E-1,-1.0109687E0,-8.619054E-1,-6.4176124E-1,-1.6907513E0,9.366575E-1,9.229444E-1,2.0342405E0,-3.7400723E-1,9.742801E-1,1.1606435E-1,8.911628E-3,-1.747797E-1,-9.485844E-1,4.2173355E-3,5.024361E-1,-1.08436264E-1,2.0885465E-1,2.4912283E-1,-5.9400547E-1,2.6653285E0,1.5737149E0,-3.649014E-1,-2.642436E-1,9.7445935E-1,2.655991E-1,-4.5621465E-3,3.2443544E-1,-5.118943E-1,-7.88934E-2,-4.4012118E-2,1.360915E0,-8.9146234E-2,3.8747165E-1,9.5413655E-1,-9.503066E-2,5.4863864E-1,2.541694E-1,-4.0045593E-2,2.473477E-1,-3.337012E-1,2.1985259E-2,1.9539155E-1,-1.4943016E-1,-8.734416E-2,-3.5227937E-1,-1.21312134E-1,1.57602E-1,-3.151844E-1,1.1025528E-1,2.3327845E-1,3.987612E-1,-3.367727E-1,-2.8546765E-2],"split_indices":[1,3,5,7,0,1,7,0,1,2,6,5,0,1,7,0,7,0,6,0,1,0,3,0,0,2,6,6,4,5,0,5,6,0,0,1,0,1,5,0,0,1,0,1,0,0,0,0,0,0,0,0,0,0,0,0,0,0,0,0,0],"split_type":[0,0,0,0,0,0,0,0,0,0,0,0,0,0,0,0,0,0,0,0,0,0,0,0,0,0,0,0,0,0,0,0,0,0,0,0,0,0,0,0,0,0,0,0,0,0,0,0,0,0,0,0,0,0,0,0,0,0,0,0,0],"sum_hessian":[1.7727452E2,5.278029E1,1.2449423E2,2.6707664E1,2.6072626E1,1.6108027E1,1.0838621E2,1.8148703E1,8.558961E0,1.987751E1,6.195115E0,1.3026336E1,3.0816915E0,4.5225056E1,6.3161148E1,3.7412016E0,4.8177595E0,1.3818057E0,1.8495705E1,1.5643234E0,4.6307917E0,1.1616725E0,1.1864663E1,1.6547194E0,1.4269723E0,3.534626E1,9.878798E0,5.840579E1,4.755363E0,3.0473392E0,1.7704203E0,1.289478E1,5.6009245E0,1.9807978E0,2.6499937E0,1.0813697E1,1.0509661E0,1.9964222E1,1.5382035E1,1.9529493E0,7.9258485E0,5.702075E1,1.3850402E0,3.1628265E0,1.5925362E0,1.1264281E0,1.9209111E0,1.1763593E1,1.131187E0,1.0766475E0,4.524277E0,1.1905797E0,9.623117E0,8.378014E0,1.1586209E1,1.1836145E1,3.5458903E0,4.137358E1,1.5647166E1,1.5600667E0,1.60276E0],"tree_param":{"num_deleted":"0","num_feature":"8","num_nodes":"61","size_leaf_vector":"1"}},{"base_weights":[-1.122152E-2,-3.8094628E-1,4.9666902E-1,-1.0606252E0,-1.7723161E-1,-1.864728E-1,6.736137E-1,-4.4153504E-2,-1.1284697E0,-7.096517E-1,6.310628E-2,-7.581868E-1,3.392014E-1,6.0613483E-2,8.668947E-1,-3.518499E-1,-1.303073E-1,1.9673403E-1,-8.5388887E-1,-3.7049818E-1,2.9734343E-1,-2.385007E-1,-3.6351165E-1,-2.1474849E-1,6.063329E-1,-5.7559305E-1,4.2059508E-1,9.503212E-1,3.2834348E-1,-2.3460071E-1,2.6956794E-1,-1.0345751E0,-2.3135777E-1,2.301871E-1,-8.6127937E-1,4.205048E-1,-7.5710106E-1,-2.4766967E-1,2.933009E-1,8.837794E-1,-1.6272138E-1,-2.9111022E-1,-6.9168374E-2,-1.3391857E-1,5.930387E-1,3.210457E-1,1.0197699E0,-1.4762484E-1,6.666359E-1,-3.5393766E-1,-8.8864475E-2,-2.1229956E-1,8.911422E-2,-3.4737778E-1,1.7106941E-1,-1.062416E-1,-3.3973563E-1,2.085189E-1,2.4246445E-2,-1.8202933E-2,-3.0770096E-1,2.3303358E-1,-1.0685367E-1,3.4443063E-1,-5.1131856E-2,-1.3558117E-1,1.180025E-1,2.3116434E-1,-8.698049E-2,2.9275683E-1,-1.2753206E-1,3.113874E-1,8.5323036E-2,-7.1985565E-2,2.772393E-1],"categories":[],"categories_nodes":[],"categories_segments":[],"categories_sizes":[],"default_left":[0,0,0,0,0,0,0,0,0,0,0,0,0,0,0,0,0,0,0,0,0,0,0,0,0,0,0,0,0,0,0,0,0,0,0,0,0,0,0,0,0,0,0,0,0,0,0,0,0,0,0,0,0,0,0,0,0,0,0,0,0,0,0,0,0,0,0,0,0,0,0,0,0,0,0],"id":3,"left_children":[1,3,5,7,9,11,13,-1,15,17,19,21,23,25,27,-1,-1,29,31,33,35,37,-1,-1,39,41,43,45,47,-1,-1,49,51,53,55,57,59,-1,61,63,-1,-1,65,-1,67,69,71,-1,73,-1,-1,-1,-1,-1,-1,-1,-1,-1,-1,-1,-1,-1,-1,-1,-1,-1,-1,-1,-1,-1,-1,-1,-1,-1,-1],"loss_changes":[3.0873205E1,1.2983871E1,8.499283E0,1.1810055E0,9.5642605E0,4.775657E0,6.49222E0,0E0,1.0902023E-1,3.2035255E0,5.409349E0,1.4812784E0,2.8362703E0,3.5210028E0,1.5714893E0,0E0,0E0,3.4505806E0,2.034894E0,5.724328E0,4.789654E0,1.7236248E0,0E0,0E0,2.8196585E0,1.0516069E0,1.7181164E0,1.2358818E0,2.3127334E0,0E0,0E0,1.2998638E0,1.6791071E0,5.011259E0,1.0466642E0,2.8789763E0,6.78056E-1,0E0,1.2901953E0,1.9497485E0,0E0,0E0,8.023439E-1,0E0,1.5616033E0,2.8650515E0,1.2952042E-1,0E0,1.5028434E0,0E0,0E0,0E0,0E0,0E0,0E0,0E0,0E0,0E0,0E0,0E0,0E0,0E0,0E0,0E0,0E0,0E0,0E0,0E0,0E0,0E0,0E0,0E0,0E0,0E0,0E0],"parents":[2147483647,0,0,1,1,2,2,3,3,4,4,5,5,6,6,8,8,9,9,10,10,11,11,12,12,13,13,14,14,17,17,18,18,19,19,20,20,21,21,24,24,25,25,26,26,27,27,28,28,31,31,32,32,33,33,34,34,35,35,36,36,38,38,39,39,42,42,44,44,45,45,46,46,48,48],"right_children":[2,4,6,8,10,12,14,-1,16,18,20,22,24,26,28,-1,-1,30,32,34,36,38,-1,-1,40,42,44,46,48,-1,-1,50,52,54,56,58,60,-1,62,64,-1,-1,66,-1,68,70,72,-1,74,-1,-1,-1,-1,-1,-1,-1,-1,-1,-1,-1,-1,-1,-1,-1,-1,-1,-1,-1,-1,-1,-1,-1,-1,-1,-1],"split_conditions":[8.075646E-2,-7.579276E-1,-3.649014E-1,-1.8106858E0,-7.039903E-1,5.798308E-1,-5.731123E-1,-4.4153504E-2,-8.378839E-1,-9.9087244E-1,-6.1191386E-1,-2.7165374E-1,-5.273302E-1,-4.390002E-1,1.725136E0,-3.518499E-1,-1.303073E-1,-5.118943E-1,8.757633E-1,2.4912283E-1,9.5614076E-1,-2.7820307E-1,-3.6351165E-1,-2.1474849E-1,-4.114502E-1,3.1577253E-1,2.6790935E-1,-7.923203E-1,2.0415182E0,-2.3460071E-1,2.6956794E-1,4.733646E-1,-2.2389793E-1,-1.0835025E0,-9.9087244E-1,-7.1074826E-1,-5.8191824E-1,-2.4766967E-1,7.9762006E-1,1.5925903E0,-1.6272138E-1,-2.9111022E-1,-8.8563335E-1,-1.3391857E-1,1.9459103E0,9.7618975E-2,3.4845111E0,-1.4762484E-1,-3.0643937E-1,-3.5393766E-1,-8.8864475E-2,-2.1229956E-1,8.911422E-2,-3.4737778E-1,1.7106941E-1,-1.062416E-1,-3.3973563E-1,2.085189E-1,2.4246445E-2,-1.8202933E-2,-3.0770096E-1,2.3303358E-1,-1.0685367E-1,3.4443063E-1,-5.1131856E-2,-1.3558117E-1,1.180025E-1,2.3116434E-1,-8.698049E-2,2.9275683E-1,-1.2753206E-1,3.113874E-1,8.5323036E-2,-7.1985565E-2,2.772393E-1],"split_indices":[1,5,5,5,7,1,6,0,5,3,6,6,7,7,6,0,0,1,3,2,2,0,0,0,5,3,1,7,6,0,0,5,6,6,3,4,0,0,7,7,0,0,0,0,7,2,4,0,3,0,0,0,0,0,0,0,0,0,0,0,0,0,0,0,0,0,0,0,0,0,0,0,0,0,0],"split_type":[0,0,0,0,0,0,0,0,0,0,0,0,0,0,0,0,0,0,0,0,0,0,0,0,0,0,0,0,0,0,0,0,0,0,0,0,0,0,0,0,0,0,0,0,0,0,0,0,0,0,0,0,0,0,0,0,0,0,0,0,0,0,0,0,0,0,0,0,0,0,0,0,0,0,0],"sum_hessian":[1.6240425E2,9.4130684E1,6.827357E1,2.073695E1,7.339373E1,1.4034768E1,5.4238796E1,1.652834E0,1.9084116E1,2.2219091E1,5.1174637E1,6.5110984E0,7.5236697E0,1.3316972E1,4.0921825E1,1.7289402E1,1.7947149E0,3.0004303E0,1.921866E1,1.7744837E1,3.3429802E1,3.7452793E0,2.765819E0,1.180728E0,6.3429418E0,4.595772E0,8.7212E0,3.477091E1,6.1509175E0,1.2053125E0,1.7951179E0,1.4382371E1,4.836291E0,8.217776E0,9.527061E0,3.0471832E1,2.9579678E0,1.517591E0,2.2276883E0,5.2947817E0,1.0481602E0,2.0677674E0,2.5280044E0,1.1833012E0,7.537899E0,4.0148716E0,3.0756035E1,1.6630595E0,4.487858E0,1.1519013E1,2.863357E0,2.3651152E0,2.4711757E0,1.1437188E0,7.074057E0,4.122747E0,5.4043145E0,1.6272743E1,1.4199091E1,1.1644254E0,1.7935424E0,1.1646861E0,1.0630023E0,4.162156E0,1.1326256E0,1.3957527E0,1.1322517E0,6.38218E0,1.1557186E0,1.9743587E0,2.040513E0,2.961213E1,1.1439066E0,1.0077846E0,3.4800732E0],"tree_param":{"num_deleted":"0","num_feature":"8","num_nodes":"75","size_leaf_vector":"1"}},{"base_weights":[-2.3463828E-2,-6.6688585E-1,1.9419238E-1,-1.0623754E0,-3.5567468E-1,2.895954E-2,8.252459E-1,-1.1364731E0,6.893234E-3,-8.5255563E-1,-9.800511E-2,-6.922405E-1,1.7789975E-1,9.31169E-1,-1.4060052E-1,-3.5173017E-1,-9.7739264E-2,-1.9579543E-2,-9.964965E-1,-3.201386E-1,6.708706E-1,7.957316E-2,-8.183102E-1,-5.1598185E-1,2.6611328E-1,3.4170067E-1,1.0689901E0,-1.6887334E-1,9.689407E-2,-3.4490758E-1,-3.5303578E-2,4.365238E-1,-5.215132E-1,8.0036195E-3,3.5478342E-1,-1.048675E0,-1.6076116E-1,4.9605772E-2,-7.650885E-1,-5.7063214E-2,4.0978524E-1,-2.4569781E-1,2.4330334E-1,3.4879988E-1,-4.933076E-2,2.2028814E-1,-1.6469099E-2,-2.8888053E-1,-2.9262092E-2,-4.0489617E-1,-1.12485506E-1,-1.3723266E-1,1.23482585E-1,-2.0626356E-1,2.1281798E-1,-1.2757256E-2,-2.9791808E-1,2.4000879E-1,-1.0496907E-1,8.685738E-2,3.2714707E-1],"categories":[],"categories_nodes":[],"categories_segments":[],"categories_sizes":[],"default_left":[0,0,0,0,0,0,0,0,0,0,0,0,0,0,0,0,0,0,0,0,0,0,0,0,0,0,0,0,0,0,0,0,0,0,0,0,0,0,0,0,0,0,0,0,0,0,0,0,0,0,0,0,0,0,0,0,0,0,0,0,0],"id":4,"left_children":[1,3,5,7,9,11,13,15,-1,17,19,21,23,25,27,-1,-1,-1,29,31,33,-1,35,37,39,41,43,-1,-1,-1,-1,45,47,-1,-1,49,51,53,55,57,59,-1,-1,-1,-1,-1,-1,-1,-1,-1,-1,-1,-1,-1,-1,-1,-1,-1,-1,-1,-1],"loss_changes":[2.108239E1,4.304638E0,1.1714015E1,1.3329926E0,2.8347657E0,9.817284E0,2.5169601E0,6.2063217E-2,0E0,8.0233145E-1,2.9713566E0,2.106421E0,4.7645597E0,1.3528843E0,8.031597E-1,0E0,0E0,0E0,7.264476E-1,2.2388382E0,1.2675656E0,0E0,1.9635687E0,1.2872245E0,3.16817E0,3.6479654E0,2.1174355E0,0E0,0E0,0E0,0E0,5.25944E-1,1.9423487E0,0E0,0E0,1.57096E0,1.0089785E0,2.2631187E0,9.8179245E-1,5.731709E0,3.5324655E0,0E0,0E0,0E0,0E0,0E0,0E0,0E0,0E0,0E0,0E0,0E0,0E0,0E0,0E0,0E0,0E0,0E0,0E0,0E0,0E0],"parents":[2147483647,0,0,1,1,2,2,3,3,4,4,5,5,6,6,7,7,9,9,10,10,11,11,12,12,13,13,14,14,18,18,19,19,20,20,22,22,23,23,24,24,25,25,26,26,31,31,32,32,35,35,36,36,37,37,38,38,39,39,40,40],"right_children":[2,4,6,8,10,12,14,16,-1,18,20,22,24,26,28,-1,-1,-1,30,32,34,-1,36,38,40,42,44,-1,-1,-1,-1,46,48,-1,-1,50,52,54,56,58,60,-1,-1,-1,-1,-1,-1,-1,-1,-1,-1,-1,-1,-1,-1,-1,-1,-1,-1,-1,-1],"split_conditions":[-6.67855E-1,-2.93711E-1,1.0165209E0,1.847803E0,-5.8191824E-1,-8.327845E-1,2.1225705E0,-3.649014E-1,6.893234E-3,3.1577253E-1,4.685613E-1,-2.2759414E0,-8.378839E-1,-6.1566025E-1,1.7027481E0,-3.5173017E-1,-9.7739264E-2,-1.9579543E-2,1.4541973E0,-8.9211166E-2,-2.2861617E-2,7.957316E-2,6.329424E-1,-6.555079E-1,-5.273302E-1,3.1577253E-1,2.1243412E0,-1.6887334E-1,9.689407E-2,-3.4490758E-1,-3.5303578E-2,-7.432424E-1,-5.1640224E-1,8.0036195E-3,3.5478342E-1,-9.172301E-1,3.9267793E-1,2.5512071E-2,-3.0639127E-1,-9.9087244E-1,1.1630373E0,-2.4569781E-1,2.4330334E-1,3.4879988E-1,-4.933076E-2,2.2028814E-1,-1.6469099E-2,-2.8888053E-1,-2.9262092E-2,-4.0489617E-1,-1.12485506E-1,-1.3723266E-1,1.23482585E-1,-2.0626356E-1,2.1281798E-1,-1.2757256E-2,-2.9791808E-1,2.4000879E-1,-1.0496907E-1,8.685738E-2,3.2714707E-1],"split_indices":[1,5,1,0,0,6,7,5,0,3,6,2,5,7,1,0,0,0,5,5,4,0,0,6,7,3,6,0,0,0,0,6,6,0,0,6,1,0,2,3,5,0,0,0,0,0,0,0,0,0,0,0,0,0,0,0,0,0,0,0,0],"split_type":[0,0,0,0,0,0,0,0,0,0,0,0,0,0,0,0,0,0,0,0,0,0,0,0,0,0,0,0,0,0,0,0,0,0,0,0,0,0,0,0,0,0,0,0,0,0,0,0,0,0,0,0,0,0,0,0,0,0,0,0,0],"sum_hessian":[1.4861559E2,3.7044106E1,1.1157148E2,1.5250268E1,2.1793839E1,8.924878E1,2.2322695E1,1.4231571E1,1.0186969E0,6.6539264E0,1.5139913E1,1.4652159E1,7.459663E1,2.0148897E1,2.1737986E0,1.3199797E1,1.0317746E0,1.2531558E0,5.40077E0,1.2199128E1,2.940785E0,1.5763127E0,1.3075846E1,7.8668985E0,6.672973E1,4.477536E0,1.5671361E1,1.0254087E0,1.1483897E0,4.336591E0,1.0641794E0,2.318747E0,9.880381E0,1.7676973E0,1.1730875E0,9.242884E0,3.832962E0,2.6503162E0,5.2165823E0,2.0721497E1,4.600823E1,1.074643E0,3.402893E0,1.4618486E1,1.0528749E0,1.1361098E0,1.1826371E0,4.2177877E0,5.6625934E0,5.6952944E0,3.5475893E0,2.6566908E0,1.1762712E0,1.2318995E0,1.4184167E0,1.5356905E0,3.680892E0,4.8357506E0,1.5885746E1,4.031167E1,5.6965604E0],"tree_param":{"num_deleted":"0","num_feature":"8","num_nodes":"61","size_leaf_vector":"1"}},{"base_weights":[-2.3495419E-2,-6.164053E-1,1.4080118E-1,-9.522426E-1,-2.6605785E-1,1.1584573E-2,7.198826E-1,-1.038741E0,-2.1446273E-2,-4.704967E-1,4.8949018E-1,-6.92486E-1,1.1283674E-1,8.060752E-1,-8.981952E-2,-8.917361E-2,-1.1236793E0,1.8963099E-1,-6.2282646E-1,3.3220512E-1,-1.7833023E-1,-8.31696E-1,-5.683668E-3,-6.3492197E-1,1.7728987E-1,2.69513E-1,9.368444E-1,-3.5362777E-1,-1.0100887E-1,-8.460981E-1,1.9079616E-2,-3.1004778E-1,-4.8818862E-1,-8.762951E-1,2.9067943E-2,2.9376885E-1,-1.23965666E-1,-2.2172989E-1,7.110012E-1,3.2554772E-1,-3.457273E-2,-2.961904E-1,-5.4711584E-2,1.1866744E-1,-1.4716955E-1,-2.139535E-1,5.5808894E-2,-3.0251276E-1,-6.410871E-2,1.146399E-1,-1.6621156E-1,-1.6340713E-1,1.23807855E-1,2.451897E-1,6.0118172E-2],"categories":[],"categories_nodes":[],"categories_segments":[],"categories_sizes":[],"default_left":[0,0,0,0,0,0,0,0,0,0,0,0,0,0,0,0,0,0,0,0,0,0,0,0,0,0,0,0,0,0,0,0,0,0,0,0,0,0,0,0,0,0,0,0,0,0,0,0,0,0,0,0,0,0,0],"id":5,"left_children":[1,3,5,7,9,11,13,15,-1,17,19,21,23,25,-1,-1,27,-1,29,-1,-1,31,-1,33,35,37,39,-1,-1,41,43,-1,45,47,-1,49,51,-1,53,-1,-1,-1,-1,-1,-1,-1,-1,-1,-1,-1,-1,-1,-1,-1,-1],"loss_changes":[1.3534863E1,3.292925E0,8.141206E0,1.0685749E0,2.7232056E0,6.498338E0,1.9854898E0,5.2163124E-1,0E0,2.6127648E0,3.2882752E0,1.0590672E0,3.9487288E0,1.0508852E0,0E0,0E0,1.15896225E-1,0E0,1.7520247E0,0E0,0E0,1.5235043E-1,0E0,1.239188E0,2.6352284E0,2.7715125E0,2.3925858E0,0E0,0E0,6.6420984E-1,9.8140943E-1,0E0,9.521309E-1,2.2327495E-1,0E0,4.2352366E0,5.04625E0,0E0,5.4299593E-2,0E0,0E0,0E0,0E0,0E0,0E0,0E0,0E0,0E0,0E0,0E0,0E0,0E0,0E0,0E0,0E0],"parents":[2147483647,0,0,1,1,2,2,3,3,4,4,5,5,6,6,7,7,9,9,10,10,11,11,12,12,13,13,16,16,18,18,21,21,23,23,24,24,25,25,26,26,29,29,30,30,32,32,33,33,35,35,36,36,38,38],"right_children":[2,4,6,8,10,12,14,16,-1,18,20,22,24,26,-1,-1,28,-1,30,-1,-1,32,-1,34,36,38,40,-1,-1,42,44,-1,46,48,-1,50,52,-1,54,-1,-1,-1,-1,-1,-1,-1,-1,-1,-1,-1,-1,-1,-1,-1,-1],"split_conditions":[-7.3023933E-1,2.5355136E-1,1.0165209E0,1.9600524E-2,7.9762006E-1,-8.378839E-1,2.2992303E0,-1.0029145E0,-2.1446273E-2,-8.619054E-1,6.8909967E-1,1.2403727E0,-9.669464E-1,-6.1566025E-1,-8.981952E-2,-8.917361E-2,-7.9262364E-1,1.8963099E-1,3.9579087E-1,3.3220512E-1,-1.7833023E-1,-6.835476E-1,-5.683668E-3,3.5597E-1,6.0132986E-1,2.6252654E-1,1.725136E0,-3.5362777E-1,-1.0100887E-1,5.0162923E-1,1.1077199E0,-3.1004778E-1,1.743329E-1,3.501254E-1,2.9067943E-2,1.0132146E0,1.2077034E0,-2.2172989E-1,1.3113116E0,3.2554772E-1,-3.457273E-2,-2.961904E-1,-5.4711584E-2,1.1866744E-1,-1.4716955E-1,-2.139535E-1,5.5808894E-2,-3.0251276E-1,-6.410871E-2,1.146399E-1,-1.6621156E-1,-1.6340713E-1,1.23807855E-1,2.451897E-1,6.0118172E-2],"split_indices":[1,3,1,4,7,5,7,6,0,2,3,0,6,7,0,0,1,0,6,0,0,6,0,7,5,5,6,0,0,2,5,0,1,2,0,4,5,0,3,0,0,0,0,0,0,0,0,0,0,0,0,0,0,0,0],"split_type":[0,0,0,0,0,0,0,0,0,0,0,0,0,0,0,0,0,0,0,0,0,0,0,0,0,0,0,0,0,0,0,0,0,0,0,0,0,0,0,0,0,0,0,0,0,0,0,0,0,0,0,0,0,0,0],"sum_hessian":[1.3705203E2,2.9140102E1,1.0791193E2,1.4000989E1,1.5139113E1,8.9059204E1,1.8852724E1,1.2585591E1,1.415398E0,1.2212019E1,2.927094E0,1.0463139E1,7.859606E1,1.757566E1,1.2770633E0,1.7559572E0,1.0829634E1,1.1000457E0,1.1111974E1,1.8505998E0,1.0764941E0,8.476393E0,1.9867463E0,5.5346327E0,7.306143E1,4.0439243E0,1.3531736E1,9.656001E0,1.1736325E0,8.008356E0,3.103618E0,4.0742745E0,4.402118E0,4.0134554E0,1.521177E0,5.270727E1,2.0354158E1,1.0259517E0,3.0179727E0,1.1832282E1,1.6994543E0,6.201513E0,1.8068427E0,1.9137623E0,1.1898556E0,3.2573428E0,1.1447753E0,2.9112802E0,1.1021752E0,4.822972E1,4.477552E0,1.1401077E1,8.953081E0,2.000806E0,1.0171667E0],"tree_param":{"num_deleted":"0","num_feature":"8","num_nodes":"55","size_leaf_vector":"1"}},{"base_weights":[-2.8025882E-2,-1.3890846E-1,6.106213E-1,-8.008521E-1,-3.4793075E-2,7.085365E-1,-4.3248877E-2,-1.6291786E-2,-8.769142E-1,-5.723881E-1,4.55446E-2,8.450766E-1,-2.9720047E-2,-2.8895128E-1,-7.2285935E-2,-3.1775674E-1,-5.545644E-2,-1.4064053E-1,3.1731102E-1,1.3626094E-1,1.0082927E0,9.398265E-2,-1.203618E-1,4.1682047E-1,-5.878589E-1,9.7976916E-2,-4.9888128E-1,-6.522689E-1,4.0019816E-1,-2.3278806E-1,2.2817878E-1,3.1926614E-1,7.100587E-2,-6.3405216E-2,2.2460349E-1,4.0342766E-3,-2.6697305E-1,1.3101481E-1,-1.7146133E-1,-2.4793427E-1,3.2286856E-2,-2.9912174E-1,1.3805861E-3,1.8088797E-1,-3.93968E-2],"categories":[],"categories_nodes":[],"categories_segments":[],"categories_sizes":[],"default_left":[0,0,0,0,0,0,0,0,0,0,0,0,0,0,0,0,0,0,0,0,0,0,0,0,0,0,0,0,0,0,0,0,0,0,0,0,0,0,0,0,0,0,0,0,0],"id":6,"left_children":[1,3,5,7,9,11,-1,-1,13,15,17,19,21,-1,-1,-1,23,25,27,29,31,-1,-1,33,35,37,39,41,43,-1,-1,-1,-1,-1,-1,-1,-1,-1,-1,-1,-1,-1,-1,-1,-1],"loss_changes":[9.2549515E0,7.632583E0,1.531632E0,8.076191E-1,4.219341E0,1.7680006E0,0E0,0E0,5.1410675E-1,3.1362529E0,4.365485E0,1.554637E0,5.926399E-1,0E0,0E0,0E0,2.0586658E0,4.440051E0,3.0758536E0,2.807766E0,2.5439262E-1,0E0,0E0,1.0770216E0,7.0314634E-1,7.431664E0,4.201625E0,7.154665E-1,3.623424E0,0E0,0E0,0E0,0E0,0E0,0E0,0E0,0E0,0E0,0E0,0E0,0E0,0E0,0E0,0E0,0E0],"parents":[2147483647,0,0,1,1,2,2,3,3,4,4,5,5,8,8,9,9,10,10,11,11,12,12,16,16,17,17,18,18,19,19,20,20,23,23,24,24,25,25,26,26,27,27,28,28],"right_children":[2,4,6,8,10,12,-1,-1,14,16,18,20,22,-1,-1,-1,24,26,28,30,32,-1,-1,34,36,38,40,42,44,-1,-1,-1,-1,-1,-1,-1,-1,-1,-1,-1,-1,-1,-1,-1,-1],"split_conditions":[9.229444E-1,-8.378839E-1,2.1225705E0,-1.8106858E0,-1.0421607E0,2.1596923E0,-4.3248877E-2,-1.6291786E-2,2.0552506E-1,5.024361E-1,8.911628E-3,-6.1566025E-1,1.4112087E-1,-2.8895128E-1,-7.2285935E-2,-3.1775674E-1,2.4912283E-1,-7.1074826E-1,-6.5131915E-1,-5.0147855E-1,1.1581459E0,9.398265E-2,-1.203618E-1,-5.8191824E-1,-1.3852744E0,4.5112795E-1,1.1194861E-1,3.292272E-1,8.2787275E-1,-2.3278806E-1,2.2817878E-1,3.1926614E-1,7.100587E-2,-6.3405216E-2,2.2460349E-1,4.0342766E-3,-2.6697305E-1,1.3101481E-1,-1.7146133E-1,-2.4793427E-1,3.2286856E-2,-2.9912174E-1,1.3805861E-3,1.8088797E-1,-3.93968E-2],"split_indices":[1,5,7,5,1,4,0,0,1,3,6,7,6,0,0,0,2,4,5,6,2,0,0,0,1,2,1,0,5,0,0,0,0,0,0,0,0,0,0,0,0,0,0,0,0],"split_type":[0,0,0,0,0,0,0,0,0,0,0,0,0,0,0,0,0,0,0,0,0,0,0,0,0,0,0,0,0,0,0,0,0,0,0,0,0,0,0,0,0,0,0,0,0],"sum_hessian":[1.2849448E2,1.1015223E2,1.8342247E1,1.4061324E1,9.6090904E1,1.6290249E1,2.0519984E0,1.4586549E0,1.2602669E1,1.1696532E1,8.439437E1,1.3625524E1,2.664725E0,1.0644431E1,1.9582374E0,5.483582E0,6.2129498E0,5.0369267E1,3.402511E1,2.8936806E0,1.0731843E1,1.4669636E0,1.1977614E0,3.4074273E0,2.8055227E0,3.0668234E1,1.970103E1,2.1386533E0,3.1886456E1,1.0770847E0,1.816596E0,9.652949E0,1.0788937E0,1.3033861E0,2.104041E0,1.2575475E0,1.5479752E0,2.059564E1,1.0072595E1,1.2556669E1,7.1443615E0,1.0628377E0,1.0758154E0,2.2984173E1,8.902283E0],"tree_param":{"num_deleted":"0","num_feature":"8","num_nodes":"45","size_leaf_vector":"1"}},{"base_weights":[-2.951438E-2,-1.1933821E-1,5.272703E-1,-7.1176946E-1,-3.639539E-2,6.241115E-1,-1.1406901E-1,-1.346269E-2,-7.9256576E-1,-2.2677703E-1,1.3726237E-1,7.6888996E-1,-2.6723761E-2,-1.23967595E-1,7.484947E-2,-8.898137E-1,-5.955335E-2,7.2682E-1,-3.1582662E-1,2.1675374E-1,-6.236913E-1,1.1040143E-1,9.3593943E-1,8.387341E-2,-9.855016E-2,-2.8959623E-1,-9.0365626E-2,2.4852222E-2,2.7281645E-1,-3.6257142E-1,1.6643715E-1,-1.4145674E-1,3.5199922E-1,-3.3867037E-1,5.800583E-2,-1.9722785E-1,2.079259E-1,3.0018497E-1,6.1336186E-2,-1.6570362E-1,-2.1254906E-2,-8.845799E-2,2.2229034E-1,2.5118947E-1,5.4779466E-2],"categories":[],"categories_nodes":[],"categories_segments":[],"categories_sizes":[],"default_left":[0,0,0,0,0,0,0,0,0,0,0,0,0,0,0,0,0,0,0,0,0,0,0,0,0,0,0,0,0,0,0,0,0,0,0,0,0,0,0,0,0,0,0,0,0],"id":7,"left_children":[1,3,5,7,9,11,13,-1,15,17,19,21,23,-1,-1,25,-1,27,29,31,33,35,37,-1,-1,-1,-1,-1,-1,39,-1,41,43,-1,-1,-1,-1,-1,-1,-1,-1,-1,-1,-1,-1],"loss_changes":[6.1144757E0,5.1339345E0,1.1266193E0,6.563978E-1,3.1112869E0,1.426281E0,4.3752718E-1,0E0,4.8161936E-1,4.0355206E0,3.1200624E0,1.2427897E0,4.3210864E-1,0E0,0E0,1.316266E-1,0E0,4.103284E-1,1.8977551E0,2.2502465E0,2.2512639E0,2.0707746E0,2.5089836E-1,0E0,0E0,0E0,0E0,0E0,0E0,2.184688E0,0E0,2.0001898E0,2.581284E0,0E0,0E0,0E0,0E0,0E0,0E0,0E0,0E0,0E0,0E0,0E0,0E0],"parents":[2147483647,0,0,1,1,2,2,3,3,4,4,5,5,6,6,8,8,9,9,10,10,11,11,12,12,15,15,17,17,18,18,19,19,20,20,21,21,22,22,29,29,31,31,32,32],"right_children":[2,4,6,8,10,12,14,-1,16,18,20,22,24,-1,-1,26,-1,28,30,32,34,36,38,-1,-1,-1,-1,-1,-1,40,-1,42,44,-1,-1,-1,-1,-1,-1,-1,-1,-1,-1,-1,-1],"split_conditions":[9.229444E-1,-8.378839E-1,2.1225705E0,-1.8106858E0,-2.6234016E-1,2.1596923E0,6.8909967E-1,-1.346269E-2,2.0552506E-1,-1.2659156E0,1.8575803E0,-6.1566025E-1,4.7117695E-2,-1.23967595E-1,7.484947E-2,5.252713E-1,-5.955335E-2,-2.935493E-1,1.8867228E0,-5.742786E-1,6.026318E-1,-5.0147855E-1,1.1581459E0,8.387341E-2,-9.855016E-2,-2.8959623E-1,-9.0365626E-2,2.4852222E-2,2.7281645E-1,6.8909967E-1,1.6643715E-1,3.5929763E-1,-2.6235715E-1,-3.3867037E-1,5.800583E-2,-1.9722785E-1,2.079259E-1,3.0018497E-1,6.1336186E-2,-1.6570362E-1,-2.1254906E-2,-8.845799E-2,2.2229034E-1,2.5118947E-1,5.4779466E-2],"split_indices":[1,5,7,5,7,4,3,0,1,2,7,7,2,0,0,6,0,1,6,1,2,6,2,0,0,0,0,0,0,3,0,4,1,0,0,0,0,0,0,0,0,0,0,0,0],"split_type":[0,0,0,0,0,0,0,0,0,0,0,0,0,0,0,0,0,0,0,0,0,0,0,0,0,0,0,0,0,0,0,0,0,0,0,0,0,0,0,0,0,0,0,0,0],"sum_hessian":[1.2000072E2,1.0400731E2,1.5993414E1,1.1842078E1,9.216523E1,1.39185915E1,2.0748222E0,1.4477495E0,1.0394328E1,4.3819675E1,4.8345554E1,1.1237432E1,2.6811595E0,1.0633081E0,1.0115141E0,8.5042925E0,1.890036E0,3.1308343E0,4.068884E1,4.4420425E1,3.9251273E0,2.6100042E0,8.627428E0,1.3671103E0,1.3140492E0,6.9701023E0,1.5341903E0,1.0126456E0,2.1181886E0,3.9169323E1,1.5195163E0,1.216208E1,3.2258347E1,2.1895525E0,1.7355746E0,1.0707557E0,1.5392486E0,7.588534E0,1.038894E0,2.3190071E1,1.5979252E1,1.0928151E1,1.2339287E0,7.3265615E0,2.4931786E1],"tree_param":{"num_deleted":"0","num_feature":"8","num_nodes":"45","size_leaf_vector":"1"}},{"base_weights":[-1.8486738E-2,-3.4041974E-1,1.02156036E-1,-5.4470694E-1,4.4730064E-2,-1.1556261E-1,3.3849147E-1,-6.5803736E-1,1.7753819E-1,3.8721424E-1,-2.8660923E-1,-2.3693025E-1,4.5069447E-1,4.984814E-1,-5.4514248E-2,9.371229E-3,-7.018739E-1,1.2316073E-1,-3.3436686E-2,-7.372378E-2,5.8020335E-1,-1.01538666E-1,-7.4849063E-1,-1.0821598E-1,3.2326874E-1,1.8778364E-1,7.962747E-1,2.3311996E-1,-2.4739693E-1,-8.906313E-1,-4.1984114E-1,2.0596285E-3,7.381882E-1,-2.6017135E-1,2.6319064E-3,-3.1741682E-1,2.646409E-2,-1.9631103E-1,4.7055808E-1,3.9373636E-1,-2.4677016E-1,8.842605E-1,-3.52365E-2,-5.6420606E-1,3.263829E-1,-1.7127004E-1,-4.0383694E-1,-2.0378838E-1,1.834511E-1,3.344357E-1,2.49517E-2,1.7684546E-1,-4.6746332E-2,-3.029693E-2,4.390348E-2,2.3863403E-1,-2.917377E-2,-5.759952E-2,1.9695537E-1,6.8085074E-2,-2.2707345E-1,1.4934403E-1,3.109992E-1,-4.1769746E-1,-2.762921E-2,2.6486427E-1,-1.07324645E-1],"categories":[],"categories_nodes":[],"categories_segments":[],"categories_sizes":[],"default_left":[0,0,0,0,0,0,0,0,0,0,0,0,0,0,0,0,0,0,0,0,0,0,0,0,0,0,0,0,0,0,0,0,0,0,0,0,0,0,0,0,0,0,0,0,0,0,0,0,0,0,0,0,0,0,0,0,0,0,0,0,0,0,0,0,0,0,0],"id":8,"left_children":[1,3,5,7,9,11,13,15,17,19,-1,21,23,25,27,-1,29,-1,-1,-1,31,33,35,37,-1,39,41,-1,43,45,47,-1,49,-1,51,-1,53,-1,55,57,59,61,-1,63,65,-1,-1,-1,-1,-1,-1,-1,-1,-1,-1,-1,-1,-1,-1,-1,-1,-1,-1,-1,-1,-1,-1],"loss_changes":[4.4628673E0,2.4878387E0,4.3459845E0,1.7975969E0,4.4031954E0,3.152176E0,2.5667548E0,5.64641E-1,2.8631756E-1,1.3009903E0,0E0,2.4968157E0,2.9776216E0,2.5154252E0,2.2111292E0,0E0,5.2736664E-1,0E0,0E0,0E0,6.801481E-1,2.4374352E0,1.8553052E0,1.9597485E0,0E0,1.4758406E0,1.2614117E0,0E0,2.1792548E0,5.7868624E-1,2.7379608E0,0E0,1.3679242E0,0E0,2.6835067E0,0E0,6.2905766E-2,0E0,6.5268177E-1,1.7940242E0,1.5173779E0,2.643566E-1,0E0,2.7796102E0,2.043481E0,0E0,0E0,0E0,0E0,0E0,0E0,0E0,0E0,0E0,0E0,0E0,0E0,0E0,0E0,0E0,0E0,0E0,0E0,0E0,0E0,0E0,0E0],"parents":[2147483647,0,0,1,1,2,2,3,3,4,4,5,5,6,6,7,7,8,8,9,9,11,11,12,12,13,13,14,14,16,16,20,20,21,21,22,22,23,23,25,25,26,26,28,28,29,29,30,30,32,32,34,34,36,36,38,38,39,39,40,40,41,41,43,43,44,44],"right_children":[2,4,6,8,10,12,14,16,18,20,-1,22,24,26,28,-1,30,-1,-1,-1,32,34,36,38,-1,40,42,-1,44,46,48,-1,50,-1,52,-1,54,-1,56,58,60,62,-1,64,66,-1,-1,-1,-1,-1,-1,-1,-1,-1,-1,-1,-1,-1,-1,-1,-1,-1,-1,-1,-1,-1,-1],"split_conditions":[-3.649014E-1,6.329424E-1,-1.2838632E-1,6.2096006E-1,1.8575803E0,1.0943938E0,8.81177E-1,-1.164913E0,1.8575803E0,-6.054707E-1,-2.8660923E-1,9.3798447E-1,7.036344E-1,8.075646E-2,-1.0639105E0,9.371229E-3,-3.1160417E-1,1.2316073E-1,-3.3436686E-2,-7.372378E-2,-8.536777E-1,-9.689803E-1,4.956432E-2,-6.7757815E-1,3.2326874E-1,2.6499007E-3,3.4505415E0,2.3311996E-1,7.3296446E-1,-1.7614213E-1,-4.4170043E-1,2.0596285E-3,-3.701501E-1,-2.6017135E-1,-5.8191824E-1,-3.1741682E-1,-6.1566025E-1,-1.9631103E-1,1.2942846E0,-3.8229052E-2,6.842685E-1,-3.506702E-1,-3.52365E-2,1.0943938E0,1.2425102E0,-1.7127004E-1,-4.0383694E-1,-2.0378838E-1,1.834511E-1,3.344357E-1,2.49517E-2,1.7684546E-1,-4.6746332E-2,-3.029693E-2,4.390348E-2,2.3863403E-1,-2.917377E-2,-5.759952E-2,1.9695537E-1,6.8085074E-2,-2.2707345E-1,1.4934403E-1,3.109992E-1,-4.1769746E-1,-2.762921E-2,2.6486427E-1,-1.07324645E-1],"split_indices":[5,0,6,7,7,5,5,2,7,1,0,3,2,1,2,0,4,0,0,0,6,7,1,6,0,7,4,0,4,6,5,0,6,0,0,0,7,0,5,5,6,7,0,5,4,0,0,0,0,0,0,0,0,0,0,0,0,0,0,0,0,0,0,0,0,0,0],"split_type":[0,0,0,0,0,0,0,0,0,0,0,0,0,0,0,0,0,0,0,0,0,0,0,0,0,0,0,0,0,0,0,0,0,0,0,0,0,0,0,0,0,0,0,0,0,0,0,0,0,0,0,0,0,0,0,0,0,0,0,0,0,0,0,0,0,0,0],"sum_hessian":[1.130118E2,3.0309566E1,8.270223E1,1.9534176E1,1.0775392E1,4.331255E1,3.9389683E1,1.6961569E1,2.5726082E0,8.483144E0,2.292247E0,3.61467E1,7.1658497E0,2.7802921E1,1.15867605E1,1.0314066E0,1.5930161E1,1.1914486E0,1.3811597E0,1.9182746E0,6.5648694E0,2.9529734E1,6.616968E0,4.225658E0,2.940192E0,1.4404651E1,1.3398271E1,1.6112841E0,9.975476E0,8.250446E0,7.679715E0,1.6435975E0,4.921272E0,2.6590903E0,2.6870644E1,4.4671826E0,2.1497853E0,2.1068947E0,2.118763E0,9.836611E0,4.56804E0,1.2250852E1,1.1474195E0,6.437651E0,3.5378253E0,6.1716466E0,2.0787995E0,6.408813E0,1.270902E0,2.6790478E0,2.2422242E0,5.134404E0,2.1736238E1,1.1183597E0,1.0314256E0,1.0926485E0,1.0261145E0,3.129772E0,6.7068386E0,2.6564069E0,1.911633E0,4.6715927E0,7.5792584E0,1.629757E0,4.807894E0,1.7906948E0,1.7471304E0],"tree_param":{"num_deleted":"0","num_feature":"8","num_nodes":"67","size_leaf_vector":"1"}},{"base_weights":[-1.50821665E-2,-8.573493E-2,4.5675245E-1,-5.8373284E-1,-2.6415845E-2,-3.1988356E-2,5.4603297E-1,-2.5919694E-1,-2.7382386E-1,3.8024634E-3,-2.9162484E-1,7.2973186E-1,1.7106442E-1,7.561341E-2,-2.1556845E-1,-4.268528E-1,6.393862E-2,8.592434E-1,1.2483324E-3,1.6585311E-1,-1.8271846E-1,-1.7937541E-1,4.7066066E-1,-2.7857453E-1,3.987515E-3,2.8307503E-2,6.5084565E-1,7.699842E-2,2.810084E-1,1.1213117E-1,-1.9489731E-1,2.4126042E-1,-9.556172E-3,-2.0962466E-1,1.0180305E-1,3.0441878E-2,-8.227782E-2,2.3376934E-1,5.153182E-2],"categories":[],"categories_nodes":[],"categories_segments":[],"categories_sizes":[],"default_left":[0,0,0,0,0,0,0,0,0,0,0,0,0,0,0,0,0,0,0,0,0,0,0,0,0,0,0,0,0,0,0,0,0,0,0,0,0,0,0],"id":9,"left_children":[1,3,5,7,9,-1,11,-1,13,15,-1,17,19,21,-1,23,25,27,-1,-1,29,-1,31,-1,33,35,37,-1,-1,-1,-1,-1,-1,-1,-1,-1,-1,-1,-1],"loss_changes":[3.6538901E0,2.7954395E0,7.764933E-1,6.38932E-1,2.4633164E0,0E0,7.354951E-1,0E0,1.0257683E0,2.213143E0,0E0,7.5540686E-1,8.321471E-1,1.4535586E0,0E0,2.2673867E0,1.5485327E0,7.921982E-2,0E0,0E0,1.1681788E0,0E0,5.8479726E-1,0E0,1.7995269E0,1.6148014E0,1.2713099E-1,0E0,0E0,0E0,0E0,0E0,0E0,0E0,0E0,0E0,0E0,0E0,0E0],"parents":[2147483647,0,0,1,1,2,2,3,3,4,4,6,6,8,8,9,9,11,11,12,12,13,13,15,15,16,16,17,17,20,20,22,22,24,24,25,25,26,26],"right_children":[2,4,6,8,10,-1,12,-1,14,16,-1,18,20,22,-1,24,26,28,-1,-1,30,-1,32,-1,34,36,38,-1,-1,-1,-1,-1,-1,-1,-1,-1,-1,-1,-1],"split_conditions":[9.229444E-1,-8.378839E-1,-7.845797E-1,-2.7820307E-1,8.605601E-1,-3.1988356E-2,1.4038663E0,-2.5919694E-1,-4.3088174E-1,-1.0421607E0,-2.9162484E-1,1.2591485E0,4.733646E-1,-8.536777E-1,-2.1556845E-1,5.024361E-1,1.7207184E0,-1.0438615E-1,1.2483324E-3,1.6585311E-1,-4.390002E-1,-1.7937541E-1,3.292272E-1,-2.7857453E-1,-7.039903E-1,7.5413567E-1,2.4470593E-1,7.699842E-2,2.810084E-1,1.1213117E-1,-1.9489731E-1,2.4126042E-1,-9.556172E-3,-2.0962466E-1,1.0180305E-1,3.0441878E-2,-8.227782E-2,2.3376934E-1,5.153182E-2],"split_indices":[1,5,5,0,1,0,4,0,3,1,0,2,5,6,0,3,5,2,0,0,7,0,0,0,7,2,6,0,0,0,0,0,0,0,0,0,0,0,0],"split_type":[0,0,0,0,0,0,0,0,0,0,0,0,0,0,0,0,0,0,0,0,0,0,0,0,0,0,0,0,0,0,0,0,0,0,0,0,0,0,0],"sum_hessian":[1.0743188E2,9.4151825E1,1.328005E1,9.080266E0,8.5071556E1,1.7900612E0,1.1489988E1,3.8293898E0,5.250876E0,8.340246E1,1.6691042E0,7.076878E0,4.4131103E0,3.4052777E0,1.845598E0,9.472019E0,7.3930435E1,5.8486805E0,1.2281978E0,1.851947E0,2.5611634E0,1.0690601E0,2.3362176E0,3.842274E0,5.6297455E0,7.068725E1,3.2431893E0,1.1574433E0,4.691237E0,1.2595668E0,1.3015966E0,1.0433481E0,1.2928697E0,1.4686323E0,4.1611133E0,5.74577E1,1.3229547E1,2.0636244E0,1.1795651E0],"tree_param":{"num_deleted":"0","num_feature":"8","num_nodes":"39","size_leaf_vector":"1"}},{"base_weights":[-1.6189735E-2,-6.8364605E-2,4.4378906E-1,-4.152545E-1,1.3941362E-4,5.754703E-1,-4.2207688E-2,-5.088849E-1,3.873911E-2,-1.7833745E-1,1.2783116E-1,6.8131876E-1,-3.1003825E-2,4.0966135E-2,-6.3402367E-1,1.495015E-1,-1.4204946E-1,-7.516725E-2,-8.5061634E-1,-1.1376559E-1,3.0395803E-1,1.0887288E-1,2.6611543E-1,-2.9808894E-1,-2.760033E-1,-2.73588E-1,2.3848721E-1,-7.310024E-2,-2.9926977E-1,3.150194E-1,-5.8108604E-1,-1.3408878E-2,5.9436566E-1,-6.781357E-2,1.1639202E-1,2.2168577E-2,-2.6889262E-1,-1.9679838E-1,-1.900014E-2,1.22064255E-1,-2.257623E-1,2.0136254E-1,-1.12638816E-1,-2.1426512E-1,9.464974E-2,2.2569232E-1,-6.213951E-2,-5.889636E-2,2.2116229E-1],"categories":[],"categories_nodes":[],"categories_segments":[],"categories_sizes":[],"default_left":[0,0,0,0,0,0,0,0,0,0,0,0,0,0,0,0,0,0,0,0,0,0,0,0,0,0,0,0,0,0,0,0,0,0,0,0,0,0,0,0,0,0,0,0,0,0,0,0,0],"id":10,"left_children":[1,3,5,7,9,11,-1,13,15,17,19,21,-1,-1,23,-1,-1,25,27,29,31,33,-1,-1,35,37,39,-1,-1,41,43,45,47,-1,-1,-1,-1,-1,-1,-1,-1,-1,-1,-1,-1,-1,-1,-1,-1],"loss_changes":[2.547388E0,2.259049E0,9.135721E-1,6.861198E-1,1.854765E0,7.188952E-1,0E0,1.1420419E0,1.0857723E0,2.2903206E0,2.0533006E0,8.3846974E-1,0E0,0E0,1.1577625E0,0E0,0E0,1.9649237E0,1.5106344E-1,4.337071E0,2.561968E0,3.904621E-1,0E0,0E0,1.5764787E0,1.499141E0,2.3691685E0,0E0,0E0,3.0704002E0,1.4513328E0,2.264999E0,1.7815166E0,0E0,0E0,0E0,0E0,0E0,0E0,0E0,0E0,0E0,0E0,0E0,0E0,0E0,0E0,0E0,0E0],"parents":[2147483647,0,0,1,1,2,2,3,3,4,4,5,5,7,7,8,8,9,9,10,10,11,11,14,14,17,17,18,18,19,19,20,20,21,21,24,24,25,25,26,26,29,29,30,30,31,31,32,32],"right_children":[2,4,6,8,10,12,-1,14,16,18,20,22,-1,-1,24,-1,-1,26,28,30,32,34,-1,-1,36,38,40,-1,-1,42,44,46,48,-1,-1,-1,-1,-1,-1,-1,-1,-1,-1,-1,-1,-1,-1,-1,-1],"split_conditions":[1.047713E0,-8.327845E-1,2.1225705E0,6.026318E-1,-4.390002E-1,2.8145654E0,-4.2207688E-2,-8.8563335E-1,-9.223266E-1,1.0132146E0,6.688778E-2,-6.1566025E-1,-3.1003825E-2,4.0966135E-2,-2.6234016E-1,1.495015E-1,-1.4204946E-1,-1.2819972E-2,-3.94028E-1,-3.5224167E-1,4.550975E-2,-5.0147855E-1,2.6611543E-1,-2.9808894E-1,4.4021493E-1,-4.0739384E-1,3.292272E-1,-7.310024E-2,-2.9926977E-1,4.0062666E-1,8.0463696E-1,-5.3884868E-2,-1.0438615E-1,-6.781357E-2,1.1639202E-1,2.2168577E-2,-2.6889262E-1,-1.9679838E-1,-1.900014E-2,1.22064255E-1,-2.257623E-1,2.0136254E-1,-1.12638816E-1,-2.1426512E-1,9.464974E-2,2.2569232E-1,-6.213951E-2,-5.889636E-2,2.2116229E-1],"split_indices":[1,6,7,2,7,6,0,0,6,4,3,7,0,0,7,0,0,1,6,6,6,6,0,0,3,2,0,0,0,2,2,2,2,0,0,0,0,0,0,0,0,0,0,0,0,0,0,0,0],"split_type":[0,0,0,0,0,0,0,0,0,0,0,0,0,0,0,0,0,0,0,0,0,0,0,0,0,0,0,0,0,0,0,0,0,0,0,0,0,0,0,0,0,0,0,0,0,0,0,0,0],"sum_hessian":[1.0387994E2,9.4061966E1,9.817967E0,1.4677328E1,7.938464E1,8.025314E0,1.7926537E0,1.2067625E1,2.6097023E0,3.2943016E1,4.6441624E1,6.9395394E0,1.0857745E0,1.9449214E0,1.01227045E1,1.3898282E0,1.2198741E0,2.9523975E1,3.4190404E0,1.97307E1,2.6710926E1,2.2389402E0,4.700599E0,4.1644573E0,5.9582467E0,1.8162163E1,1.1361813E1,1.1845669E0,2.2344735E0,1.0459551E1,9.271149E0,1.3218807E1,1.3492118E1,1.1041108E0,1.1348294E0,4.3726296E0,1.5856167E0,5.691165E0,1.2470998E1,1.0215458E1,1.1463555E0,6.918512E0,3.5410392E0,8.249597E0,1.0215524E0,2.0868435E0,1.1131964E1,2.0071807E0,1.1484937E1],"tree_param":{"num_deleted":"0","num_feature":"8","num_nodes":"49","size_leaf_vector":"1"}},{"base_weights":[-1.702959E-2,-4.3833694E-1,2.9154949E-2,-2.2712746E-1,-1.5185721E-1,-2.05859E-2,4.0844086E-1,-1.8306781E-1,8.0205046E-2,3.817538E-3,-2.2186844E-1,4.8456374E-1,-4.273332E-2,4.5344418E-1,-1.0948182E-1,-2.7899051E-2,5.2697605E-1,-1.6323827E-2,7.233563E-1,2.2550128E-1,-3.4982227E-3,-1.6589765E-1,9.766245E-2,2.3491365E-1,-4.3582603E-2,-1.3627225E-1,1.0790557E-1,2.609306E-1,4.6900485E-2,2.4192313E-2,-1.2777638E-1,-1.1677144E-2,1.0640353E-1],"categories":[],"categories_nodes":[],"categories_segments":[],"categories_sizes":[],"default_left":[0,0,0,0,0,0,0,0,0,0,0,0,0,0,0,0,0,0,0,0,0,0,0,0,0,0,0,0,0,0,0,0,0],"id":11,"left_children":[1,3,5,-1,7,9,11,-1,13,15,-1,17,-1,19,-1,21,23,25,27,-1,-1,29,31,-1,-1,-1,-1,-1,-1,-1,-1,-1,-1],"loss_changes":[1.9599624E0,7.93509E-1,1.7275347E0,0E0,7.3933816E-1,1.4329604E0,5.140655E-1,0E0,1.0282385E0,1.3392954E0,0E0,1.1542346E0,0E0,4.6239865E-1,0E0,1.3368216E0,9.079076E-1,8.321423E-1,4.028151E-1,0E0,0E0,2.3857698E0,1.4368073E0,0E0,0E0,0E0,0E0,0E0,0E0,0E0,0E0,0E0,0E0],"parents":[2147483647,0,0,1,1,2,2,4,4,5,5,6,6,8,8,9,9,11,11,13,13,15,15,16,16,17,17,18,18,21,21,22,22],"right_children":[2,4,6,-1,8,10,12,-1,14,16,-1,18,-1,20,-1,22,24,26,28,-1,-1,30,32,-1,-1,-1,-1,-1,-1,-1,-1,-1,-1],"split_conditions":[-8.378839E-1,-2.7820307E-1,9.229444E-1,-2.2712746E-1,-5.742786E-1,8.605601E-1,3.8666704E0,-1.8306781E-1,1.9862154E-1,1.7207184E0,-2.2186844E-1,-5.731123E-1,-4.273332E-2,3.292272E-1,-1.0948182E-1,-2.6234016E-1,6.6853875E-1,2.1487431E-1,1.9579456E0,2.2550128E-1,-3.4982227E-3,4.7117695E-2,4.550975E-2,2.3491365E-1,-4.3582603E-2,-1.3627225E-1,1.0790557E-1,2.609306E-1,4.6900485E-2,2.4192313E-2,-1.2777638E-1,-1.1677144E-2,1.0640353E-1],"split_indices":[5,0,1,0,1,1,4,0,2,5,0,6,0,0,0,7,6,5,6,0,0,2,6,0,0,0,0,0,0,0,0,0,0],"split_type":[0,0,0,0,0,0,0,0,0,0,0,0,0,0,0,0,0,0,0,0,0,0,0,0,0,0,0,0,0,0,0,0,0],"sum_hessian":[9.907165E1,8.94866E0,9.0122986E1,3.458161E0,5.490499E0,8.0510315E1,9.612673E0,1.2977021E0,4.1927967E0,7.8829384E1,1.6809334E0,8.551406E0,1.061267E0,2.2704518E0,1.922345E0,7.5216064E1,3.6133173E0,3.0614326E0,5.4899735E0,1.0079921E0,1.2624596E0,3.5680305E1,3.9535755E1,2.4972653E0,1.1160519E0,1.318172E0,1.7432606E0,3.9389575E0,1.5510157E0,1.8669184E1,1.7011124E1,2.637031E1,1.3165445E1],"tree_param":{"num_deleted":"0","num_feature":"8","num_nodes":"33","size_leaf_vector":"1"}},{"base_weights":[-1.2884973E-2,-3.735803E-1,3.0743796E-2,-2.6481405E-1,5.4854322E-2,-3.0674416E-1,6.561363E-2,-1.8121117E-1,3.031502E-1,-1.8961604E-1,-6.305471E-2,2.8986901E-2,3.927171E-1,2.7811188E-1,-1.0254271E-1,1.06083274E-1,-2.7304715E-1,1.9536653E-1,-5.223172E-2,5.294205E-1,-1.9218218E-2,3.165788E-1,-2.0130312E-1,-1.6944765E-1,4.716927E-2,-2.0877784E-1,5.661651E-1,-7.962189E-1,1.4954225E-2,8.7245E-2,2.3563342E-1,1.31765E-1,9.409519E-3,-1.5300876E-1,1.5672237E-1,2.2562042E-1,-2.0562983E-1,-4.1859207E-1,3.5766564E-2,3.744259E-2,-9.5668025E-2,1.1684491E-1,-9.537954E-2],"categories":[],"categories_nodes":[],"categories_segments":[],"categories_sizes":[],"default_left":[0,0,0,0,0,0,0,0,0,0,0,0,0,0,0,0,0,0,0,0,0,0,0,0,0,0,0,0,0,0,0,0,0,0,0,0,0,0,0,0,0,0,0],"id":12,"left_children":[1,3,5,-1,7,9,11,-1,13,-1,15,17,19,-1,21,-1,23,25,27,29,-1,31,-1,-1,-1,33,35,37,39,41,-1,-1,-1,-1,-1,-1,-1,-1,-1,-1,-1,-1,-1],"loss_changes":[1.5392622E0,2.350109E0,1.0502143E0,0E0,1.2745811E0,6.2392837E-1,9.4897497E-1,0E0,1.4900367E0,0E0,6.126054E-1,9.9891263E-1,5.329652E-1,0E0,1.2226634E0,0E0,6.519877E-1,3.74644E0,2.508935E0,6.400529E-1,0E0,9.535876E-2,0E0,0E0,0E0,2.9791675E0,3.5160909E0,2.4456222E0,1.7561394E0,5.426566E-1,0E0,0E0,0E0,0E0,0E0,0E0,0E0,0E0,0E0,0E0,0E0,0E0,0E0],"parents":[2147483647,0,0,1,1,2,2,4,4,5,5,6,6,8,8,10,10,11,11,12,12,14,14,16,16,17,17,18,18,19,19,21,21,25,25,26,26,27,27,28,28,29,29],"right_children":[2,4,6,-1,8,10,12,-1,14,-1,16,18,20,-1,22,-1,24,26,28,30,-1,32,-1,-1,-1,34,36,38,40,42,-1,-1,-1,-1,-1,-1,-1,-1,-1,-1,-1,-1,-1],"split_conditions":[-1.0109687E0,5.024361E-1,-8.378839E-1,-2.6481405E-1,-7.039903E-1,-2.7820307E-1,1.047713E0,-1.8121117E-1,-5.273302E-1,-1.8961604E-1,-3.0639127E-1,-5.3884868E-2,1.9579456E0,2.7811188E-1,-7.1074826E-1,1.06083274E-1,1.5925903E0,-4.0739384E-1,-3.383586E-3,-5.731123E-1,-1.9218218E-2,2.4912283E-1,-2.0130312E-1,-1.6944765E-1,4.716927E-2,1.743329E-1,6.7340726E-1,-2.2861617E-2,1.0002056E0,-7.13395E-1,2.3563342E-1,1.31765E-1,9.409519E-3,-1.5300876E-1,1.5672237E-1,2.2562042E-1,-2.0562983E-1,-4.1859207E-1,3.5766564E-2,3.744259E-2,-9.5668025E-2,1.1684491E-1,-9.537954E-2],"split_indices":[1,3,5,0,7,0,1,0,7,0,2,2,6,0,4,0,7,2,2,6,0,2,0,0,0,1,1,4,3,6,0,0,0,0,0,0,0,0,0,0,0,0,0],"split_type":[0,0,0,0,0,0,0,0,0,0,0,0,0,0,0,0,0,0,0,0,0,0,0,0,0,0,0,0,0,0,0,0,0,0,0,0,0,0,0,0,0,0,0],"sum_hessian":[9.608373E1,9.551901E0,8.653184E1,3.8803446E0,5.671556E0,7.3732204E0,7.9158615E1,1.1601601E0,4.511396E0,2.4752464E0,4.8979745E0,7.2166534E1,6.9920797E0,1.2712873E0,3.2401085E0,1.4121244E0,3.4858499E0,2.3211468E1,4.8955067E1,5.259112E0,1.7329681E0,2.1200979E0,1.1200106E0,1.8909013E0,1.5949486E0,1.13154125E1,1.1896054E1,3.1559966E0,4.579907E1,2.4201226E0,2.8389893E0,1.1050054E0,1.0150925E0,8.227935E0,3.087478E0,1.0705111E1,1.190943E0,1.5907667E0,1.5652299E0,3.493099E1,1.0868083E1,1.4083269E0,1.0117958E0],"tree_param":{"num_deleted":"0","num_feature":"8","num_nodes":"43","size_leaf_vector":"1"}},{"base_weights":[-1.636453E-2,-2.7999964E-1,3.1929597E-2,-5.1698454E-2,-4.7502407E-1,4.1515115E-1,-9.128788E-3,-5.068253E-1,3.3552688E-1,-1.1564079E-1,-2.4948482E-1,-1.29557E-2,6.823754E-1,-3.3814803E-1,4.437863E-2,-1.9559667E-1,-1.8465329E-2,-3.571727E-2,1.7091438E-1,2.6578274E-1,-1.5874231E-1,-1.8909168E-1,1.6199091E-1,4.7599282E-2,2.3586513E-1,-5.454997E-1,1.0981394E-1,2.6371145E-1,-7.055397E-2,-3.1236308E-2,1.607099E-1,-2.6582792E-1,1.0969459E-1,-1.8249959E-1,3.7273028E-1,-6.732531E-1,7.285858E-2,-9.807983E-2,1.3797614E-1,1.4067283E-1,-2.1925865E-1,-1.8174377E-3,-2.898128E-1,-1.1423549E-1,5.4879557E-2],"categories":[],"categories_nodes":[],"categories_segments":[],"categories_sizes":[],"default_left":[0,0,0,0,0,0,0,0,0,0,0,0,0,0,0,0,0,0,0,0,0,0,0,0,0,0,0,0,0,0,0,0,0,0,0,0,0,0,0,0,0,0,0,0,0],"id":13,"left_children":[1,3,5,7,9,11,13,15,17,19,-1,21,23,25,27,-1,-1,-1,-1,29,-1,-1,-1,-1,-1,31,-1,33,35,-1,-1,-1,37,-1,39,41,43,-1,-1,-1,-1,-1,-1,-1,-1],"loss_changes":[1.2060816E0,6.281611E-1,1.2683074E0,1.5580678E0,9.0137386E-1,9.0101624E-1,1.3101592E0,2.1963596E-1,5.849002E-1,9.3527615E-1,0E0,1.6984019E0,1.3739276E-1,1.7191995E0,1.6360054E0,0E0,0E0,0E0,0E0,3.8390955E-1,0E0,0E0,0E0,0E0,0E0,1.9808307E0,0E0,2.3441162E0,3.7561445E0,0E0,0E0,0E0,7.2792315E-1,0E0,2.5098293E0,1.6236365E0,1.8446873E0,0E0,0E0,0E0,0E0,0E0,0E0,0E0,0E0],"parents":[2147483647,0,0,1,1,2,2,3,3,4,4,5,5,6,6,7,7,8,8,9,9,11,11,12,12,13,13,14,14,19,19,25,25,27,27,28,28,32,32,34,34,35,35,36,36],"right_children":[2,4,6,8,10,12,14,16,18,20,-1,22,24,26,28,-1,-1,-1,-1,30,-1,-1,-1,-1,-1,32,-1,34,36,-1,-1,-1,38,-1,40,42,44,-1,-1,-1,-1,-1,-1,-1,-1],"split_conditions":[-8.327845E-1,2.4912283E-1,-7.432424E-1,-1.0058993E0,-9.223266E-1,-1.0639641E-1,-8.862001E-1,2.6499007E-3,-2.6235715E-1,2.5355136E-1,-2.4948482E-1,-7.7607447E-1,-5.8191824E-1,7.9762006E-1,-1.9997285E-1,-1.9559667E-1,-1.8465329E-2,-3.571727E-2,1.7091438E-1,1.1194861E-1,-1.5874231E-1,-1.8909168E-1,1.6199091E-1,4.7599282E-2,2.3586513E-1,6.8128616E-1,1.0981394E-1,-5.083964E-1,-4.4012118E-2,-3.1236308E-2,1.607099E-1,-2.6582792E-1,-5.8191824E-1,-1.8249959E-1,1.0066421E0,-5.8191824E-1,-5.731123E-1,-9.807983E-2,1.3797614E-1,1.4067283E-1,-2.1925865E-1,-1.8174377E-3,-2.898128E-1,-1.1423549E-1,5.4879557E-2],"split_indices":[6,2,6,6,6,1,1,7,1,3,0,6,0,7,1,0,0,0,0,1,0,0,0,0,0,5,0,2,1,0,0,0,0,0,2,0,6,0,0,0,0,0,0,0,0],"split_type":[0,0,0,0,0,0,0,0,0,0,0,0,0,0,0,0,0,0,0,0,0,0,0,0,0,0,0,0,0,0,0,0,0,0,0,0,0,0,0,0,0,0,0,0,0],"sum_hessian":[9.3025986E1,1.3659839E1,7.936614E1,6.8758545E0,6.7839847E0,6.7987022E0,7.2567444E1,3.0188146E0,3.85704E0,4.0383344E0,2.7456505E0,2.9785042E0,3.8201978E0,9.406549E0,6.3160892E1,1.9265122E0,1.0923023E0,1.4785753E0,2.3784645E0,2.2864702E0,1.751864E0,1.3411463E0,1.6373578E0,1.0504324E0,2.7697656E0,7.4409127E0,1.965637E0,2.127192E1,4.1888973E1,1.2237066E0,1.0627636E0,4.6639905E0,2.7769222E0,1.8548536E0,1.9417065E1,7.3414807E0,3.4547493E1,1.2656021E0,1.5113201E0,1.8389507E1,1.0275573E0,2.5504122E0,4.791068E0,6.2656355E0,2.8281858E1],"tree_param":{"num_deleted":"0","num_feature":"8","num_nodes":"45","size_leaf_vector":"1"}},{"base_weights":[-2.2492504E-2,7.3916265E-3,-4.148275E-1,-6.007375E-2,3.020333E-1,3.8246196E-2,-6.502417E-1,1.1585178E-2,-5.121864E-1,-1.1783264E-1,6.017449E-1,-2.5082606E-1,-4.899252E-3,-5.649272E-2,4.6360904E-1,-7.2670907E-1,8.810175E-2,4.515346E-1,-5.194022E-1,-5.739693E-2,7.199684E-1,-9.608098E-2,2.338952E-1,-1.7028731E-1,7.73717E-1,-3.1165478E-1,-1.7863883E-1,-7.7598296E-2,1.22444466E-1,-2.5264418E-2,2.0790309E-1,-7.563398E-1,5.754338E-2,2.9680744E-1,3.9377624E-1,4.292055E-2,-7.263337E-2,8.039214E-2,-1.5154347E-1,7.492431E-2,2.8308266E-1,5.9819702E-2,-1.5297744E-1,-3.1392315E-1,-5.6282304E-2,-2.232459E-1,2.4306162E-1],"categories":[],"categories_nodes":[],"categories_segments":[],"categories_sizes":[],"default_left":[0,0,0,0,0,0,0,0,0,0,0,0,0,0,0,0,0,0,0,0,0,0,0,0,0,0,0,0,0,0,0,0,0,0,0,0,0,0,0,0,0,0,0,0,0,0,0],"id":14,"left_children":[1,3,5,7,9,-1,11,13,15,17,19,-1,-1,21,23,25,27,29,31,-1,33,35,-1,37,39,-1,41,-1,-1,-1,-1,43,-1,-1,45,-1,-1,-1,-1,-1,-1,-1,-1,-1,-1,-1,-1],"loss_changes":[1.0723872E0,1.7223052E0,9.092653E-1,2.2929628E0,2.1017704E0,0E0,5.373887E-1,1.9313936E0,1.310574E0,1.9626302E0,1.0360053E0,0E0,0E0,1.885539E0,1.7461314E0,1.0529342E0,4.8739085E-1,5.3197753E-1,9.703227E-1,0E0,3.6151028E-1,1.889644E0,0E0,6.515664E-1,2.7129793E-1,0E0,5.8192676E-1,0E0,0E0,0E0,0E0,4.4307637E-1,0E0,0E0,3.2221336E0,0E0,0E0,0E0,0E0,0E0,0E0,0E0,0E0,0E0,0E0,0E0,0E0],"parents":[2147483647,0,0,1,1,2,2,3,3,4,4,6,6,7,7,8,8,9,9,10,10,13,13,14,14,15,15,16,16,17,17,18,18,20,20,21,21,23,23,24,24,26,26,31,31,34,34],"right_children":[2,4,6,8,10,-1,12,14,16,18,20,-1,-1,22,24,26,28,30,32,-1,34,36,-1,38,40,-1,42,-1,-1,-1,-1,44,-1,-1,46,-1,-1,-1,-1,-1,-1,-1,-1,-1,-1,-1,-1],"split_conditions":[1.9459103E0,7.9762006E-1,3.292272E-1,9.452752E-1,-9.9087244E-1,3.8246196E-2,-2.012026E-1,6.0557806E-1,9.078291E-1,1.498351E-2,-6.646452E-1,-2.5082606E-1,-4.899252E-3,1.9815092E0,8.3530076E-2,6.1102295E-1,-6.1566025E-1,-8.536777E-1,1.5925903E0,-5.739693E-2,-7.1074826E-1,-4.3088174E-1,2.338952E-1,6.9050235E-1,-4.0739384E-1,-3.1165478E-1,2.5512071E-2,-7.7598296E-2,1.22444466E-1,-2.5264418E-2,2.0790309E-1,1.1194861E-1,5.754338E-2,2.9680744E-1,2.573885E-1,4.292055E-2,-7.263337E-2,8.039214E-2,-1.5154347E-1,7.492431E-2,2.8308266E-1,5.9819702E-2,-1.5297744E-1,-3.1392315E-1,-5.6282304E-2,-2.232459E-1,2.4306162E-1],"split_indices":[7,7,0,4,3,0,4,4,5,5,5,0,0,5,6,1,7,6,7,0,4,3,0,4,2,0,0,0,0,0,0,1,0,0,4,0,0,0,0,0,0,0,0,0,0,0,0],"split_type":[0,0,0,0,0,0,0,0,0,0,0,0,0,0,0,0,0,0,0,0,0,0,0,0,0,0,0,0,0,0,0,0,0,0,0,0,0,0,0,0,0,0,0,0,0,0,0],"sum_hessian":[9.020328E1,8.4730515E1,5.4727583E0,6.959188E1,1.5138639E1,1.7953448E0,3.6774132E0,6.091185E1,8.680028E0,6.55816E0,8.58048E0,2.597085E0,1.0803282E0,5.369938E1,7.2124724E0,6.239604E0,2.4404237E0,2.6609275E0,3.8972323E0,1.032946E0,7.547534E0,5.211693E1,1.5824513E0,2.5174308E0,4.6950417E0,3.4049373E0,2.8346667E0,1.2633815E0,1.1770422E0,1.0290589E0,1.6318687E0,2.875742E0,1.0214903E0,3.0202074E0,4.5273266E0,1.9766382E1,3.2350544E1,1.1768758E0,1.3405551E0,1.75437E0,2.9406717E0,1.5098494E0,1.3248173E0,1.3482125E0,1.5275295E0,1.0020771E0,3.5252495E0],"tree_param":{"num_deleted":"0","num_feature":"8","num_nodes":"47","size_leaf_vector":"1"}},{"base_weights":[-1.4506559E-2,-5.188604E-2,2.836514E-1,2.9729402E-1,-8.7951265E-2,4.6928832E-1,-4.8417293E-2,4.8426107E-1,-1.09822586E-1,-5.702215E-1,-3.1169618E-2,2.0249969E-1,1.3802528E-1,2.4082202E-1,-1.16520934E-1,-3.63253E-2,6.354961E-1,6.623937E-3,-7.460168E-1,5.4059714E-1,-7.037812E-2,-7.9260245E-2,1.3032849E-1,-7.854862E-2,1.8589368E-1,-2.5754794E-3,2.557654E-1,-2.5476715E-1,-5.788117E-2,9.3177307E-1,-1.0491448E-1,-4.881072E-1,-2.3478264E-2,5.1494315E-2,3.7661222E-1,-1.3472079E-2,-2.4071631E-1,-5.0186623E-2,2.5741385E-2],"categories":[],"categories_nodes":[],"categories_segments":[],"categories_sizes":[],"default_left":[0,0,0,0,0,0,0,0,0,0,0,0,0,0,0,0,0,0,0,0,0,0,0,0,0,0,0,0,0,0,0,0,0,0,0,0,0,0,0],"id":15,"left_children":[1,3,5,7,9,11,13,15,-1,17,19,-1,21,23,-1,-1,25,-1,27,29,31,-1,-1,-1,-1,-1,-1,-1,-1,33,-1,35,37,-1,-1,-1,-1,-1,-1],"loss_changes":[9.998921E-1,1.025977E0,6.3929516E-1,1.1274405E0,1.9739587E0,3.5039306E-1,5.3536564E-1,6.6350114E-1,0E0,8.081887E-1,1.5205464E0,0E0,5.6193155E-1,7.4204844E-1,0E0,0E0,7.4634886E-1,0E0,1.724844E-1,1.8439456E0,1.2183063E0,0E0,0E0,0E0,0E0,0E0,0E0,0E0,0E0,5.965581E-1,0E0,8.394778E-1,9.1779035E-1,0E0,0E0,0E0,0E0,0E0,0E0],"parents":[2147483647,0,0,1,1,2,2,3,3,4,4,5,5,6,6,7,7,9,9,10,10,12,12,13,13,16,16,18,18,19,19,20,20,29,29,31,31,32,32],"right_children":[2,4,6,8,10,12,14,16,-1,18,20,-1,22,24,-1,-1,26,-1,28,30,32,-1,-1,-1,-1,-1,-1,-1,-1,34,-1,36,38,-1,-1,-1,-1,-1,-1],"split_conditions":[9.229444E-1,-8.619054E-1,1.4038663E0,2.6499007E-3,-4.0739384E-1,1.5467874E0,3.6067042E-1,-9.223266E-1,-1.09822586E-1,-7.1794945E-1,-2.5588998E-1,2.0249969E-1,2.1487431E-1,3.2552156E0,-1.16520934E-1,-3.63253E-2,-7.039903E-1,6.623937E-3,-1.7401014E-1,-4.4012118E-2,-7.046234E-1,-7.9260245E-2,1.3032849E-1,-7.854862E-2,1.8589368E-1,-2.5754794E-3,2.557654E-1,-2.5476715E-1,-5.788117E-2,-4.182892E-2,-1.0491448E-1,-6.555079E-1,-2.6234016E-1,5.1494315E-2,3.7661222E-1,-1.3472079E-2,-2.4071631E-1,-5.0186623E-2,2.5741385E-2],"split_indices":[1,2,4,7,2,1,6,6,0,5,2,0,5,4,0,0,7,0,7,1,5,0,0,0,0,0,0,0,0,6,0,6,7,0,0,0,0,0,0],"split_type":[0,0,0,0,0,0,0,0,0,0,0,0,0,0,0,0,0,0,0,0,0,0,0,0,0,0,0,0,0,0,0,0,0,0,0,0,0,0,0],"sum_hessian":[8.739619E1,7.839405E1,9.002131E0,6.660874E0,7.173318E1,5.5091276E0,3.4930036E0,5.4069514E0,1.2539225E0,6.6036096E0,6.512957E1,2.7584865E0,2.750641E0,2.0449524E0,1.4480512E0,1.120662E0,4.286289E0,1.7115024E0,4.892107E0,3.3589644E0,6.1770607E1,1.2130907E0,1.5375504E0,1.0115678E0,1.0333846E0,1.3224759E0,2.9638133E0,3.671537E0,1.22057E0,2.3012822E0,1.0576823E0,5.2855616E0,5.6485043E1,1.14415E0,1.1571321E0,2.6671782E0,2.6183834E0,2.4160421E1,3.2324623E1],"tree_param":{"num_deleted":"0","num_feature":"8","num_nodes":"39","size_leaf_vector":"1"}},{"base_weights":[-9.523391E-3,1.8222727E-2,-3.3488303E-1,-1.3496411E-2,4.1383207E-1,-6.362731E-1,1.6906542E-1,-8.4194E-2,2.4013236E-1,2.633187E-1,-9.993956E-2,-2.993384E-2,-2.292801E-1,1.1039532E-1,-3.658866E-2,-3.3327508E-1,4.3982207E-3,5.084366E-1,-9.3513444E-2,-1.8219918E-1,1.3086541E-1,-1.8980132E-1,-2.793841E-1,7.84181E-2,-3.5654226E-1,-1.0324991E-1,6.681259E-1,-3.7733796E-1,1.5650389E-1,-2.2874235E-1,4.8936484E-4,-1.1454593E-2,1.3339229E-1,-1.5136915E-1,8.215112E-2,2.7138466E-1,-6.0788706E-2,2.2813715E-2,-3.1883875E-1],"categories":[],"categories_nodes":[],"categories_segments":[],"categories_sizes":[],"default_left":[0,0,0,0,0,0,0,0,0,0,0,0,0,0,0,0,0,0,0,0,0,0,0,0,0,0,0,0,0,0,0,0,0,0,0,0,0,0,0],"id":16,"left_children":[1,3,5,7,9,11,13,15,17,-1,19,-1,-1,-1,-1,21,23,25,27,-1,-1,29,-1,31,33,-1,35,37,-1,-1,-1,-1,-1,-1,-1,-1,-1,-1,-1],"loss_changes":[7.857151E-1,1.0160129E0,1.1460936E0,1.374255E0,1.519767E0,2.3196435E-1,2.3875432E-1,1.3209109E0,1.5443285E0,0E0,1.2847487E0,0E0,0E0,0E0,0E0,1.1703169E0,1.232702E0,1.5129051E0,1.6456208E0,0E0,0E0,1.5271058E0,0E0,1.6498467E0,8.7102854E-1,0E0,1.8876421E0,2.0256839E0,0E0,0E0,0E0,0E0,0E0,0E0,0E0,0E0,0E0,0E0,0E0],"parents":[2147483647,0,0,1,1,2,2,3,3,4,4,5,5,6,6,7,7,8,8,10,10,15,15,16,16,17,17,18,18,21,21,23,23,24,24,26,26,27,27],"right_children":[2,4,6,8,10,12,14,16,18,-1,20,-1,-1,-1,-1,22,24,26,28,-1,-1,30,-1,32,34,-1,36,38,-1,-1,-1,-1,-1,-1,-1,-1,-1,-1,-1],"split_conditions":[1.8575803E0,1.3276002E0,6.026318E-1,9.366575E-1,9.366575E-1,-8.378839E-1,6.329424E-1,-2.856828E-1,1.5440878E0,2.633187E-1,-9.9087244E-1,-2.993384E-2,-2.292801E-1,1.1039532E-1,-3.658866E-2,5.6465733E-1,9.452752E-1,-8.550079E-1,4.550975E-2,-1.8219918E-1,1.3086541E-1,-6.67855E-1,-2.793841E-1,3.5929763E-1,1.266058E0,-1.0324991E-1,7.5413567E-1,-5.0147855E-1,1.5650389E-1,-2.2874235E-1,4.8936484E-4,-1.1454593E-2,1.3339229E-1,-1.5136915E-1,8.215112E-2,2.7138466E-1,-6.0788706E-2,2.2813715E-2,-3.1883875E-1],"split_indices":[7,7,2,0,0,5,0,5,0,0,3,0,0,0,0,3,4,1,6,0,0,1,0,4,1,0,2,6,0,0,0,0,0,0,0,0,0,0,0],"split_type":[0,0,0,0,0,0,0,0,0,0,0,0,0,0,0,0,0,0,0,0,0,0,0,0,0,0,0,0,0,0,0,0,0,0,0,0,0,0,0],"sum_hessian":[8.5360054E1,7.95225E1,5.8375516E0,7.451401E1,5.0084944E0,3.4885957E0,2.348956E0,5.879365E1,1.5720355E1,2.259728E0,2.7487664E0,1.0147552E0,2.4738405E0,1.2382048E0,1.1107512E0,1.4700532E1,4.409312E1,8.423023E0,7.297332E0,1.3440667E0,1.4046997E0,1.2918507E1,1.7820247E0,3.723906E1,6.854061E0,1.1464963E0,7.276527E0,5.2580986E0,2.0392332E0,2.489159E0,1.0429348E1,2.8925377E1,8.313682E0,5.712319E0,1.1417425E0,5.691797E0,1.58473E0,3.699915E0,1.5581836E0],"tree_param":{"num_deleted":"0","num_feature":"8","num_nodes":"39","size_leaf_vector":"1"}},{"base_weights":[-1.1101272E-2,-4.3593485E-2,2.5659397E-1,-2.1933619E-2,-2.004846E-1,4.048576E-1,-5.191857E-3,-4.7745336E-2,4.515925E-1,1.8020107E-1,1.10934205E-1,7.5240634E-2,-9.2170045E-2,-2.0798797E-2,-4.1351667E-1,-1.9720621E-2,1.9538929E-1,-7.659794E-2,1.3035388E-1,-1.5675038E-1,8.013803E-2,5.2980565E-2,-2.0965596E-1,-7.6819025E-2,9.1046795E-2,4.978946E-4,2.0125411E-1],"categories":[],"categories_nodes":[],"categories_segments":[],"categories_sizes":[],"default_left":[0,0,0,0,0,0,0,0,0,0,0,0,0,0,0,0,0,0,0,0,0,0,0,0,0,0,0],"id":17,"left_children":[1,3,5,7,-1,9,11,13,15,-1,17,-1,-1,19,21,-1,-1,-1,-1,23,25,-1,-1,-1,-1,-1,-1],"loss_changes":[7.427775E-1,1.0117915E0,3.6109763E-1,9.303388E-1,0E0,2.7394837E-1,4.1198158E-1,6.952716E-1,4.497682E-1,0E0,5.3671485E-1,0E0,0E0,9.397446E-1,9.395887E-1,0E0,0E0,0E0,0E0,1.4090894E0,1.8271724E0,0E0,0E0,0E0,0E0,0E0,0E0],"parents":[2147483647,0,0,1,1,2,2,3,3,5,5,6,6,7,7,8,8,10,10,13,13,14,14,19,19,20,20],"right_children":[2,4,6,8,-1,10,12,14,16,-1,18,-1,-1,20,22,-1,-1,-1,-1,24,26,-1,-1,-1,-1,-1,-1],"split_conditions":[9.229444E-1,8.605601E-1,1.4038663E0,1.7207184E0,-2.004846E-1,1.5467874E0,3.6067042E-1,1.8575803E0,-6.67855E-1,1.8020107E-1,1.8275167E0,7.5240634E-2,-9.2170045E-2,-2.7820307E-1,3.292272E-1,-1.9720621E-2,1.9538929E-1,-7.659794E-2,1.3035388E-1,8.0463696E-1,1.0823869E0,5.2980565E-2,-2.0965596E-1,-7.6819025E-2,9.1046795E-2,4.978946E-4,2.0125411E-1],"split_indices":[1,1,4,5,0,1,6,7,1,0,1,0,0,0,0,0,0,0,0,2,6,0,0,0,0,0,0],"split_type":[0,0,0,0,0,0,0,0,0,0,0,0,0,0,0,0,0,0,0,0,0,0,0,0,0,0,0],"sum_hessian":[8.311023E1,7.486094E1,8.24929E0,7.3352684E1,1.5082513E0,4.9176397E0,3.3316505E0,7.041364E1,2.9390483E0,2.325054E0,2.5925858E0,1.8951061E0,1.4365444E0,6.656652E1,3.8471224E0,1.0054104E0,1.9336379E0,1.3150276E0,1.2775581E0,2.812801E1,3.8438507E1,1.3780936E0,2.4690287E0,2.350056E1,4.6274486E0,3.481587E1,3.622637E0],"tree_param":{"num_deleted":"0","num_feature":"8","num_nodes":"27","size_leaf_vector":"1"}},{"base_weights":[-4.262292E-3,-3.037876E-1,2.3536352E-2,5.5172317E-2,-4.5580667E-1,7.887241E-2,-1.4335418E-1,-2.1819615E-1,1.0569764E-2,-1.972879E-1,1.431248E-1,-4.5124644E-1,1.1614633E-1,-2.9995367E-1,1.1523042E-1,-2.2962263E-2,2.8109702E-1,4.347942E-2,-2.728773E-1,4.4379961E-1,-2.0892829E-1,-4.2808703E-1,9.767938E-2,8.54343E-2,-2.8074086E-1,3.1882096E-3,5.324899E-1,-2.5779137E-1,1.4881015E-1,5.8513463E-2,2.7604404E-1,-4.9243417E-1,1.0298121E-1,-2.0149966E-1,4.911088E-2,1.3088953E-1,-8.081424E-2,8.1086606E-2,-1.0413278E-1,2.4051183E-1,7.418521E-2,-1.8037854E-1,9.699265E-2,-9.325146E-2,1.2447809E-1,-3.7001148E-2,-1.9604225E-1,-1.16768375E-1,1.4558233E-1],"categories":[],"categories_nodes":[],"categories_segments":[],"categories_sizes":[],"default_left":[0,0,0,0,0,0,0,0,0,0,0,0,0,0,0,0,0,0,0,0,0,0,0,0,0,0,0,0,0,0,0,0,0,0,0,0,0,0,0,0,0,0,0,0,0,0,0,0,0],"id":18,"left_children":[1,3,5,-1,7,9,11,-1,-1,13,15,17,19,21,-1,23,25,27,-1,29,31,33,-1,35,-1,37,39,41,-1,43,-1,45,47,-1,-1,-1,-1,-1,-1,-1,-1,-1,-1,-1,-1,-1,-1,-1,-1],"loss_changes":[6.968327E-1,6.1069405E-1,7.1986127E-1,0E0,7.8626657E-1,1.0620801E0,1.6072181E0,0E0,0E0,7.9672647E-1,1.102882E0,2.104103E0,1.3021711E0,9.6221864E-1,0E0,2.319732E0,1.8295124E0,8.5498124E-1,0E0,1.0427859E0,6.148727E-1,1.40042E0,0E0,2.750472E0,0E0,1.3527288E0,8.579638E-1,9.647443E-1,0E0,7.044145E-1,0E0,1.283359E-1,9.161169E-1,0E0,0E0,0E0,0E0,0E0,0E0,0E0,0E0,0E0,0E0,0E0,0E0,0E0,0E0,0E0,0E0],"parents":[2147483647,0,0,1,1,2,2,4,4,5,5,6,6,9,9,10,10,11,11,12,12,13,13,15,15,16,16,17,17,19,19,20,20,21,21,23,23,25,25,26,26,27,27,29,29,31,31,32,32],"right_children":[2,4,6,-1,8,10,12,-1,-1,14,16,18,20,22,-1,24,26,28,-1,30,32,34,-1,36,-1,38,40,42,-1,44,-1,46,48,-1,-1,-1,-1,-1,-1,-1,-1,-1,-1,-1,-1,-1,-1,-1,-1],"split_conditions":[-9.669464E-1,-6.990472E-1,7.4254215E-1,5.5172317E-2,5.3263E-1,-6.67855E-1,1.0943938E0,-2.1819615E-1,1.0569764E-2,8.625467E-1,-1.6760859E-1,5.521305E-1,-5.8336186E-1,6.2798196E-1,1.1523042E-1,-1.9823335E-1,-2.2688268E-1,1.8095666E-1,-2.728773E-1,8.551382E-1,6.9050235E-1,7.9762006E-1,9.767938E-2,-2.7165374E-1,-2.8074086E-1,-6.507155E-1,2.6786813E-1,3.292272E-1,1.4881015E-1,-4.390002E-1,2.7604404E-1,1.3000208E-1,-5.273302E-1,-2.0149966E-1,4.911088E-2,1.3088953E-1,-8.081424E-2,8.1086606E-2,-1.0413278E-1,2.4051183E-1,7.418521E-2,-1.8037854E-1,9.699265E-2,-9.325146E-2,1.2447809E-1,-3.7001148E-2,-1.9604225E-1,-1.16768375E-1,1.4558233E-1],"split_indices":[6,1,5,0,7,1,5,0,0,6,5,2,4,5,0,5,6,4,0,2,4,7,0,6,0,6,6,0,0,7,0,4,7,0,0,0,0,0,0,0,0,0,0,0,0,0,0,0,0],"split_type":[0,0,0,0,0,0,0,0,0,0,0,0,0,0,0,0,0,0,0,0,0,0,0,0,0,0,0,0,0,0,0,0,0,0,0,0,0,0,0,0,0,0,0,0,0,0,0,0,0],"sum_hessian":[8.1830864E1,6.106483E0,7.572438E1,1.4012712E0,4.7052116E0,5.7264523E1,1.8459856E1,2.7200236E0,1.9851881E0,1.0417788E1,4.6846737E1,8.104784E0,1.0355072E1,9.265666E0,1.1521214E0,2.1635775E1,2.521096E1,4.3329945E0,3.7717896E0,4.975191E0,5.3798804E0,7.9524164E0,1.3132497E0,2.0149502E1,1.4862733E0,1.2454969E1,1.2755992E1,2.8596535E0,1.4733411E0,3.371247E0,1.603944E0,2.5150697E0,2.864811E0,5.5380173E0,2.414399E0,1.001569E1,1.0133812E1,7.1962547E0,5.2587147E0,5.6303377E0,7.125654E0,1.7755091E0,1.0841444E0,1.7183702E0,1.6528769E0,1.3004259E0,1.2146437E0,1.2444371E0,1.6203738E0],"tree_param":{"num_deleted":"0","num_feature":"8","num_nodes":"49","size_leaf_vector":"1"}},{"base_weights":[-4.699831E-3,-2.927487E-1,2.4326053E-2,-1.8771361E-1,-1.0702896E-1,3.6422935E-1,-7.924556E-3,-1.4651538E-1,7.979495E-2,5.2604085E-1,-7.4920796E-2,-4.0474772E-1,3.203335E-2,1.5957767E-1,-1.7519937E-1,3.5363205E-2,2.0373404E-1,2.6261194E-2,-6.1027205E-1,3.0060002E-1,-3.3499584E-2,7.3644474E-2,-1.254079E-1,-2.2666505E-1,-2.540314E-2,4.482863E-1,-1.22062474E-1,-1.0375152E-1,2.1876848E-1,-7.981771E-2,1.9923447E-1,-1.7454015E-2,-2.686777E-1,1.4558361E-1,-1.0621044E-1],"categories":[],"categories_nodes":[],"categories_segments":[],"categories_sizes":[],"default_left":[0,0,0,0,0,0,0,0,0,0,0,0,0,0,0,0,0,0,0,0,0,0,0,0,0,0,0,0,0,0,0,0,0,0,0],"id":19,"left_children":[1,3,5,-1,7,9,11,-1,13,15,-1,17,19,-1,21,-1,-1,-1,23,25,27,-1,-1,-1,-1,29,-1,31,33,-1,-1,-1,-1,-1,-1],"loss_changes":[6.793488E-1,3.9291257E-1,8.1369364E-1,0E0,4.6505147E-1,7.702719E-1,1.0996505E0,0E0,6.5506583E-1,2.5805485E-1,0E0,6.9518256E-1,1.1222233E0,0E0,4.977787E-1,0E0,0E0,0E0,2.8728497E-1,1.4879267E0,9.38865E-1,0E0,0E0,0E0,0E0,1.8437836E0,0E0,1.4314911E0,1.9399117E0,0E0,0E0,0E0,0E0,0E0,0E0],"parents":[2147483647,0,0,1,1,2,2,4,4,5,5,6,6,8,8,9,9,11,11,12,12,14,14,18,18,19,19,20,20,25,25,27,27,28,28],"right_children":[2,4,6,-1,8,10,12,-1,14,16,-1,18,20,-1,22,-1,-1,-1,24,26,28,-1,-1,-1,-1,30,-1,32,34,-1,-1,-1,-1,-1,-1],"split_conditions":[-8.378839E-1,-5.742786E-1,-8.619054E-1,-1.8771361E-1,-8.089066E-1,9.097992E-2,-4.0739384E-1,-1.4651538E-1,-3.0639127E-1,-2.935493E-1,-7.4920796E-2,-4.4411626E-1,-5.3884868E-2,1.5957767E-1,-6.555079E-1,3.5363205E-2,2.0373404E-1,2.6261194E-2,1.743329E-1,6.7340726E-1,6.357066E-1,7.3644474E-2,-1.254079E-1,-2.2666505E-1,-2.540314E-2,-6.990472E-1,-1.22062474E-1,5.909355E-1,1.0410897E0,-7.981771E-2,1.9923447E-1,-1.7454015E-2,-2.686777E-1,1.4558361E-1,-1.0621044E-1],"split_indices":[5,1,2,0,6,7,2,0,2,1,0,6,2,0,6,0,0,0,1,1,6,0,0,0,0,1,0,6,5,0,0,0,0,0,0],"split_type":[0,0,0,0,0,0,0,0,0,0,0,0,0,0,0,0,0,0,0,0,0,0,0,0,0,0,0,0,0,0,0,0,0,0,0],"sum_hessian":[7.940158E1,6.436899E0,7.296468E1,1.45651E0,4.980389E0,5.4310236E0,6.753365E1,1.1068599E0,3.8735292E0,4.411558E0,1.0194653E0,5.3429823E0,6.2190674E1,1.0051925E0,2.8683367E0,1.6859905E0,2.7255678E0,1.7427394E0,3.600243E0,1.1494987E1,5.0695686E1,1.045737E0,1.8225995E0,2.4778373E0,1.1224056E0,9.81289E0,1.6820959E0,4.011354E1,1.0582146E1,2.2228875E0,7.5900025E0,3.8945644E1,1.167898E0,7.32624E0,3.2559056E0],"tree_param":{"num_deleted":"0","num_feature":"8","num_nodes":"35","size_leaf_vector":"1"}},{"base_weights":[-9.603652E-3,-4.075067E-2,2.4604695E-1,-2.4005825E-2,-1.5421544E-1,3.892137E-1,-6.1731087E-3,-4.491804E-2,3.80498E-1,4.9611738E-1,-7.391795E-3,7.462673E-2,-8.9030735E-2,-1.2279602E-2,-3.124615E-1,7.3701576E-3,1.5589154E-1,3.9438657E-2,1.7264365E-1,-1.4924154E-1,8.203048E-2,-5.462217E-1,1.3376749E-1,-6.678395E-2,1.3775007E-1,-7.799675E-2,6.334691E-2,-2.3559758E-1,4.3037955E-2],"categories":[],"categories_nodes":[],"categories_segments":[],"categories_sizes":[],"default_left":[0,0,0,0,0,0,0,0,0,0,0,0,0,0,0,0,0,0,0,0,0,0,0,0,0,0,0,0,0],"id":20,"left_children":[1,3,5,7,-1,9,11,13,15,17,-1,-1,-1,19,21,-1,-1,-1,-1,23,25,27,-1,-1,-1,-1,-1,-1,-1],"loss_changes":[6.3723093E-1,5.509208E-1,3.1642675E-1,6.066151E-1,0E0,2.583502E-1,3.800235E-1,5.826169E-1,1.621247E-1,5.3660274E-2,0E0,0E0,0E0,7.9886305E-1,1.5307893E0,0E0,0E0,0E0,0E0,1.2266269E0,1.6761507E0,1.1020701E0,0E0,0E0,0E0,0E0,0E0,0E0,0E0],"parents":[2147483647,0,0,1,1,2,2,3,3,5,5,6,6,7,7,8,8,9,9,13,13,14,14,19,19,20,20,21,21],"right_children":[2,4,6,8,-1,10,12,14,16,18,-1,-1,-1,20,22,-1,-1,-1,-1,24,26,28,-1,-1,-1,-1,-1,-1,-1],"split_conditions":[9.229444E-1,8.605601E-1,1.4038663E0,1.7207184E0,-1.5421544E-1,1.8575803E0,3.6067042E-1,9.5614076E-1,-5.742786E-1,-6.1566025E-1,-7.391795E-3,7.462673E-2,-8.9030735E-2,-2.7820307E-1,3.9267793E-1,7.3701576E-3,1.5589154E-1,3.9438657E-2,1.7264365E-1,8.0463696E-1,-7.13395E-1,1.3096497E0,1.3376749E-1,-6.678395E-2,1.3775007E-1,-7.799675E-2,6.334691E-2,-2.3559758E-1,4.3037955E-2],"split_indices":[1,1,4,5,0,7,6,2,1,7,0,0,0,0,1,0,0,0,0,2,6,2,0,0,0,0,0,0,0],"split_type":[0,0,0,0,0,0,0,0,0,0,0,0,0,0,0,0,0,0,0,0,0,0,0,0,0,0,0,0,0],"sum_hessian":[7.7767265E1,7.007083E1,7.696432E0,6.869133E1,1.3795016E0,4.5631285E0,3.1333036E0,6.615992E1,2.5314095E0,3.4684148E0,1.0947139E0,1.7457788E0,1.3875247E0,5.9898605E1,6.261316E0,1.0421308E0,1.4892787E0,1.0947379E0,2.3736768E0,2.4188448E1,3.5710155E1,4.9998517E0,1.2614639E0,2.2151207E1,2.037241E0,9.509253E0,2.6200905E1,3.6097283E0,1.3901235E0],"tree_param":{"num_deleted":"0","num_feature":"8","num_nodes":"29","size_leaf_vector":"1"}},{"base_weights":[-4.149127E-3,-2.6709783E-1,2.1253308E-2,-1.7060879E-1,-1.0520672E-1,3.1756744E-1,-6.9172047E-3,8.34576E-2,-1.07735366E-1,1.9840226E-1,-2.5067624E-2,-4.5503637E-1,1.7014246E-2,1.0559469E-1,-8.334379E-2,-1.6352968E-1,1.2324767E-1,-2.1716547E-1,7.7742427E-3,7.7635825E-2,-1.6295995E-1,-2.5185376E-2,2.5430718E-1,-4.754733E-1,9.675179E-2,2.90055E-2,-1.0976204E-1,-1.02910876E-1,1.1098509E-1,-6.127078E-2,-2.612576E-1,-1.0788197E-1,1.3193303E-1],"categories":[],"categories_nodes":[],"categories_segments":[],"categories_sizes":[],"default_left":[0,0,0,0,0,0,0,0,0,0,0,0,0,0,0,0,0,0,0,0,0,0,0,0,0,0,0,0,0,0,0,0,0],"id":21,"left_children":[1,3,5,-1,7,9,11,13,-1,-1,15,17,19,-1,-1,-1,-1,-1,-1,21,23,25,27,29,31,-1,-1,-1,-1,-1,-1,-1,-1],"loss_changes":[5.2308357E-1,2.7695745E-1,5.9956247E-1,0E0,3.037622E-1,7.5089836E-1,7.1906966E-1,4.9459794E-1,0E0,0E0,1.1500914E0,4.5822555E-1,7.101573E-1,0E0,0E0,0E0,0E0,0E0,0E0,8.874315E-1,1.3795964E0,1.3460442E0,1.3656589E0,6.4002895E-1,1.6929634E0,0E0,0E0,0E0,0E0,0E0,0E0,0E0,0E0],"parents":[2147483647,0,0,1,1,2,2,4,4,5,5,6,6,7,7,10,10,11,11,12,12,19,19,20,20,21,21,22,22,23,23,24,24],"right_children":[2,4,6,-1,8,10,12,14,-1,-1,16,18,20,-1,-1,-1,-1,-1,-1,22,24,26,28,30,32,-1,-1,-1,-1,-1,-1,-1,-1],"split_conditions":[-8.378839E-1,-5.742786E-1,-8.619054E-1,-1.7060879E-1,-4.3088174E-1,1.08265884E-1,-5.083964E-1,1.9862154E-1,-1.07735366E-1,1.9840226E-1,7.878946E-1,-1.6760859E-1,7.4254215E-1,1.0559469E-1,-8.334379E-2,-1.6352968E-1,1.2324767E-1,-2.1716547E-1,7.7742427E-3,8.911628E-3,1.0943938E0,-3.4925693E-1,-4.4170043E-1,9.7445935E-1,5.0162923E-1,2.90055E-2,-1.0976204E-1,-1.02910876E-1,1.1098509E-1,-6.127078E-2,-2.612576E-1,-1.0788197E-1,1.3193303E-1],"split_indices":[5,1,2,0,3,5,2,2,0,0,5,5,5,0,0,0,0,0,0,6,5,6,5,5,2,0,0,0,0,0,0,0,0],"split_type":[0,0,0,0,0,0,0,0,0,0,0,0,0,0,0,0,0,0,0,0,0,0,0,0,0,0,0,0,0,0,0,0,0],"sum_hessian":[7.646148E1,5.8977137E0,7.056377E1,1.1822984E0,4.715415E0,5.2342095E0,6.532956E1,3.0904334E0,1.6249818E0,2.1484554E0,3.085754E0,2.3987389E0,6.2930817E1,1.7875177E0,1.3029157E0,1.2928358E0,1.7929181E0,1.2146459E0,1.1840931E0,4.7499844E1,1.5430974E1,3.0567354E1,1.6932491E1,6.626489E0,8.804484E0,2.3041275E1,7.5260797E0,2.4274411E0,1.450505E1,4.8297753E0,1.796714E0,3.7573667E0,5.0471177E0],"tree_param":{"num_deleted":"0","num_feature":"8","num_nodes":"33","size_leaf_vector":"1"}},{"base_weights":[-1.1842257E-2,-3.747792E-2,2.507688E-1,4.3073017E-2,-1.3699138E-1,3.6149192E-1,-3.328676E-2,1.0076075E-1,-3.6821225E-1,-7.790161E-1,-2.5497755E-2,4.7736537E-1,-2.0003743E-2,-3.8765678E-1,1.5396245E-1,3.768827E-2,-6.433792E-1,-2.905045E-1,-2.432097E-2,-2.4759439E-1,1.454545E-1,-1.4212452E-3,2.117112E-1,-9.922165E-3,-1.9611636E-1,2.2401801E-1,-4.454631E-1,-2.526919E-1,-4.1501682E-2,3.6058147E-2,-6.052862E-1,3.937064E-1,-1.6365863E-1,9.42663E-2,-8.506599E-2,1.6408356E-2,-2.2880755E-1,-5.0554886E-2,1.692911E-1,-2.4828519E-1,1.5017256E-2,2.0253451E-1,-1.3481238E-1,9.6665956E-2,-1.1315847E-1],"categories":[],"categories_nodes":[],"categories_segments":[],"categories_sizes":[],"default_left":[0,0,0,0,0,0,0,0,0,0,0,0,0,0,0,0,0,0,0,0,0,0,0,0,0,0,0,0,0,0,0,0,0,0,0,0,0,0,0,0,0,0,0,0,0],"id":22,"left_children":[1,3,5,7,9,11,-1,13,15,17,19,21,-1,23,25,-1,27,-1,-1,29,31,-1,-1,-1,-1,33,35,-1,-1,37,39,41,43,-1,-1,-1,-1,-1,-1,-1,-1,-1,-1,-1,-1],"loss_changes":[5.216907E-1,5.686011E-1,3.1637174E-1,9.756131E-1,2.2451205E0,3.055001E-1,0E0,9.8150194E-1,7.7121973E-1,5.357044E-1,1.0988848E0,4.9472427E-1,0E0,3.3394563E-1,1.4732412E0,0E0,2.276746E-1,0E0,0E0,1.2947156E0,1.3266349E0,0E0,0E0,0E0,0E0,1.4603193E0,6.3782984E-1,0E0,0E0,9.5322067E-1,8.58083E-1,2.537271E0,9.549276E-1,0E0,0E0,0E0,0E0,0E0,0E0,0E0,0E0,0E0,0E0,0E0,0E0],"parents":[2147483647,0,0,1,1,2,2,3,3,4,4,5,5,7,7,8,8,9,9,10,10,11,11,13,13,14,14,16,16,19,19,20,20,25,25,26,26,29,29,30,30,31,31,32,32],"right_children":[2,4,6,8,10,12,-1,14,16,18,20,22,-1,24,26,-1,28,-1,-1,30,32,-1,-1,-1,-1,34,36,-1,-1,38,40,42,44,-1,-1,-1,-1,-1,-1,-1,-1,-1,-1,-1,-1],"split_conditions":[1.047713E0,-3.0311173E-1,2.1225705E0,1.0624268E0,4.666589E-3,2.3192062E0,-3.328676E-2,-1.0421607E0,-3.383586E-3,5.1930183E-1,3.5929763E-1,-6.1566025E-1,-2.0003743E-2,-4.4476855E-1,1.847803E0,3.768827E-2,9.078291E-1,-2.905045E-1,-2.432097E-2,2.5512071E-2,8.943206E-1,-1.4212452E-3,2.117112E-1,-9.922165E-3,-1.9611636E-1,5.909355E-1,6.2096006E-1,-2.526919E-1,-4.1501682E-2,-1.3758856E-1,8.1354207E-1,7.345904E-1,4.7117695E-2,9.42663E-2,-8.506599E-2,1.6408356E-2,-2.2880755E-1,-5.0554886E-2,1.692911E-1,-2.4828519E-1,1.5017256E-2,2.0253451E-1,-1.3481238E-1,9.6665956E-2,-1.1315847E-1],"split_indices":[1,4,7,3,3,6,0,1,2,6,4,7,0,6,0,0,5,0,0,0,4,0,0,0,0,6,7,0,0,1,3,5,2,0,0,0,0,0,0,0,0,0,0,0,0],"split_type":[0,0,0,0,0,0,0,0,0,0,0,0,0,0,0,0,0,0,0,0,0,0,0,0,0,0,0,0,0,0,0,0,0,0,0,0,0,0,0,0,0,0,0,0,0],"sum_hessian":[7.509573E1,6.919802E1,5.8977113E0,3.855607E1,3.0641956E1,4.5160136E0,1.3816979E0,3.4475475E1,4.080592E0,3.6480339E0,2.6993923E1,3.4637458E0,1.0522677E0,2.7689168E0,3.1706558E1,1.6545805E0,2.4260118E0,2.5648425E0,1.0831916E0,1.1545712E1,1.544821E1,1.4279965E0,2.0357492E0,1.668981E0,1.099936E0,2.8949478E1,2.75708E0,1.2613761E0,1.1646357E0,6.9407964E0,4.6049166E0,8.415761E0,7.032449E0,2.4904507E1,4.0449705E0,1.3912139E0,1.3658662E0,5.4940834E0,1.4467131E0,3.242123E0,1.3627936E0,6.45905E0,1.956711E0,1.9916639E0,5.040785E0],"tree_param":{"num_deleted":"0","num_feature":"8","num_nodes":"45","size_leaf_vector":"1"}},{"base_weights":[-2.0637454E-2,-2.697084E-1,3.322025E-3,-1.5479591E-1,-1.1147278E-1,-1.8939769E-2,2.9853615E-1,6.3793354E-2,-2.6997274E-1,2.1490279E-1,-4.9263194E-2,4.8293877E-1,-2.5326855E-2,4.438671E-2,-1.4172505E-1,4.1393414E-1,-1.4029741E-1,-4.1888094E-1,-3.9254865E-3,1.6435966E-2,1.9484408E-1,-5.374384E-2,7.03752E-1,3.3408187E-2,-6.2002265E-1,-1.3604526E-1,6.937733E-2,2.7725437E-1,3.265614E-2,-9.025994E-3,-2.7890173E-1,3.2198064E-2,-1.2866434E-1,1.347367E-1,-1.7681456E-3],"categories":[],"categories_nodes":[],"categories_segments":[],"categories_sizes":[],"default_left":[0,0,0,0,0,0,0,0,0,0,0,0,0,0,0,0,0,0,0,0,0,0,0,0,0,0,0,0,0,0,0,0,0,0,0],"id":23,"left_children":[1,3,5,-1,7,9,11,-1,13,15,17,19,-1,-1,-1,21,-1,23,25,-1,-1,-1,27,-1,29,31,33,-1,-1,-1,-1,-1,-1,-1,-1],"loss_changes":[4.4452706E-1,1.9718045E-1,4.5783415E-1,0E0,3.2735655E-1,4.7092685E-1,3.8569242E-1,0E0,4.0575173E-1,1.2312883E0,9.750098E-1,2.1010607E-1,0E0,0E0,0E0,1.233795E0,0E0,7.4718213E-1,5.219835E-1,0E0,0E0,0E0,4.9369097E-1,0E0,8.419074E-1,1.4159948E0,9.945121E-1,0E0,0E0,0E0,0E0,0E0,0E0,0E0,0E0],"parents":[2147483647,0,0,1,1,2,2,4,4,5,5,6,6,8,8,9,9,10,10,11,11,15,15,17,17,18,18,22,22,24,24,25,25,26,26],"right_children":[2,4,6,-1,8,10,12,-1,14,16,18,20,-1,-1,-1,22,-1,24,26,-1,-1,-1,28,-1,30,32,34,-1,-1,-1,-1,-1,-1,-1,-1],"split_conditions":[-8.378839E-1,-8.089066E-1,1.2972502E0,-1.5479591E-1,-6.555079E-1,-5.5228746E-1,1.9579456E0,6.3793354E-2,-8.806503E-1,1.8575803E0,-3.649014E-1,2.1487431E-1,-2.5326855E-2,4.438671E-2,-1.4172505E-1,-2.7820307E-1,-1.4029741E-1,-4.4951E-1,-5.731123E-1,1.6435966E-2,1.9484408E-1,-5.374384E-2,-1.7614213E-1,3.3408187E-2,-3.4925693E-1,-7.432424E-1,-3.701501E-1,2.7725437E-1,3.265614E-2,-9.025994E-3,-2.7890173E-1,3.2198064E-2,-1.2866434E-1,1.347367E-1,-1.7681456E-3],"split_indices":[5,6,1,0,6,5,6,0,7,7,5,5,0,0,0,0,0,1,6,0,0,0,6,0,6,6,6,0,0,0,0,0,0,0,0],"split_type":[0,0,0,0,0,0,0,0,0,0,0,0,0,0,0,0,0,0,0,0,0,0,0,0,0,0,0,0,0,0,0,0,0,0,0],"sum_hessian":[7.333983E1,5.535776E0,6.7804054E1,1.2810599E0,4.2547164E0,6.3919773E1,3.8842804E0,1.2851341E0,2.9695823E0,6.63858E0,5.7281193E1,2.4456015E0,1.438679E0,1.0568854E0,1.9126968E0,5.444537E0,1.1940428E0,5.3582973E0,5.1922894E1,1.0570518E0,1.3885497E0,1.9125601E0,3.531977E0,1.5963699E0,3.7619276E0,1.822269E1,3.3700207E1,2.1732173E0,1.3587596E0,1.6725656E0,2.089362E0,1.0297807E1,7.9248834E0,4.753243E0,2.8946962E1],"tree_param":{"num_deleted":"0","num_feature":"8","num_nodes":"35","size_leaf_vector":"1"}},{"base_weights":[-1.590564E-2,-2.0689341E-1,1.8453564E-2,-3.6544162E-3,-3.7958026E-1,3.0205622E-1,-1.2347594E-2,-3.993103E-1,3.1395715E-1,-1.8514343E-2,-2.1860069E-1,-1.6201826E-2,4.2142332E-1,-1.314573E-1,8.146555E-3,-1.4513567E-1,-3.6056925E-2,-2.4918685E-2,1.4985487E-1,-9.694458E-2,9.651809E-2,1.762214E-1,-5.703962E-3,-5.194678E-2,2.084091E-1,1.274122E-1,-1.7946404E-1,-1.4882566E-1,3.201944E-1,-7.611732E-2,1.1391027E-1,-1.0408155E-1,9.300244E-2,1.446121E-1,-4.693668E-2],"categories":[],"categories_nodes":[],"categories_segments":[],"categories_sizes":[],"default_left":[0,0,0,0,0,0,0,0,0,0,0,0,0,0,0,0,0,0,0,0,0,0,0,0,0,0,0,0,0,0,0,0,0,0,0],"id":24,"left_children":[1,3,5,7,9,11,13,15,17,19,-1,-1,21,-1,23,-1,-1,-1,-1,-1,-1,-1,-1,25,27,29,31,-1,33,-1,-1,-1,-1,-1,-1],"loss_changes":[4.8515135E-1,3.9400092E-1,5.5478555E-1,9.025744E-1,7.529711E-1,2.8709728E-1,5.085702E-1,1.7168999E-2,3.3547905E-1,5.201423E-1,0E0,0E0,3.5998362E-1,0E0,6.870331E-1,0E0,0E0,0E0,0E0,0E0,0E0,0E0,0E0,1.029677E0,1.1959071E0,1.9114683E0,2.250665E0,0E0,9.990659E-1,0E0,0E0,0E0,0E0,0E0,0E0],"parents":[2147483647,0,0,1,1,2,2,3,3,4,4,5,5,6,6,7,7,8,8,9,9,12,12,14,14,23,23,24,24,25,25,26,26,28,28],"right_children":[2,4,6,8,10,12,14,16,18,20,-1,-1,22,-1,24,-1,-1,-1,-1,-1,-1,-1,-1,26,28,30,32,-1,34,-1,-1,-1,-1,-1,-1],"split_conditions":[-8.327845E-1,2.4912283E-1,-7.432424E-1,-1.0058993E0,-9.223266E-1,-6.4999306E-1,-7.1936446E-1,-1.0835025E0,-3.0639127E-1,6.026318E-1,-2.1860069E-1,-1.6201826E-2,4.507781E-2,-1.314573E-1,7.092901E-1,-1.4513567E-1,-3.6056925E-2,-2.4918685E-2,1.4985487E-1,-9.694458E-2,9.651809E-2,1.762214E-1,-5.703962E-3,-1.9997285E-1,-4.0739384E-1,-6.990472E-1,7.043556E-1,-1.4882566E-1,5.213735E-1,-7.611732E-2,1.1391027E-1,-1.0408155E-1,9.300244E-2,1.446121E-1,-4.693668E-2],"split_indices":[6,2,6,6,6,5,6,6,2,2,0,0,4,0,7,0,0,0,0,0,0,0,0,1,2,1,6,0,5,0,0,0,0,0,0],"split_type":[0,0,0,0,0,0,0,0,0,0,0,0,0,0,0,0,0,0,0,0,0,0,0,0,0,0,0,0,0,0,0,0,0,0,0],"sum_hessian":[7.234954E1,1.0265674E1,6.2083866E1,5.1847672E0,5.080906E0,5.2194023E0,5.6864464E1,2.1941886E0,2.9905787E0,3.0152445E0,2.0656614E0,1.4479247E0,3.7714777E0,1.6751717E0,5.5189293E1,1.1215149E0,1.0726738E0,1.1284757E0,1.862103E0,1.6173717E0,1.3978729E0,2.49684E0,1.2746377E0,4.302059E1,1.2168701E1,1.7876825E1,2.5143766E1,1.1956458E0,1.0973056E1,7.1179433E0,1.07588825E1,1.8950867E1,6.1929E0,8.183164E0,2.7898924E0],"tree_param":{"num_deleted":"0","num_feature":"8","num_nodes":"35","size_leaf_vector":"1"}},{"base_weights":[-1.4829955E-2,-8.796182E-2,6.582774E-2,-4.3821264E-2,-1.7952743E-1,-2.994765E-1,1.1278273E-1,-1.9192551E-1,8.780505E-2,-2.0317043E-1,5.4727096E-2,-1.5766141E-1,2.0214832E-1,-1.178706E-2,-6.3411164E-1,1.8959062E-1,-9.226759E-3,8.229582E-2,-2.4620742E-1,5.683198E-1,1.0637705E-1,2.3969118E-1,-4.8789927E-1,-2.2753172E-1,-3.3775672E-2,-2.1153899E-1,2.534951E-1,2.9221416E-1,-1.3695446E-1,1.9208238E-2,7.0407563E-1,-1.5798999E-2,4.2417973E-1,1.4176129E-1,-7.647728E-2,4.083418E-2,-2.5846872E-1,-9.717632E-2,6.181362E-2,-1.2271302E-1,1.553427E-1,-1.04568124E-1,2.0640182E-1,2.6556176E-1,4.282734E-2,4.7378022E-2,-1.5509783E-1,1.8636452E-1,-7.2648875E-2],"categories":[],"categories_nodes":[],"categories_segments":[],"categories_sizes":[],"default_left":[0,0,0,0,0,0,0,0,0,0,0,0,0,0,0,0,0,0,0,0,0,0,0,0,0,0,0,0,0,0,0,0,0,0,0,0,0,0,0,0,0,0,0,0,0,0,0,0,0],"id":25,"left_children":[1,3,5,7,-1,9,11,13,15,-1,-1,17,19,21,23,-1,25,27,-1,29,31,33,35,-1,-1,37,39,41,-1,-1,43,45,47,-1,-1,-1,-1,-1,-1,-1,-1,-1,-1,-1,-1,-1,-1,-1,-1],"loss_changes":[4.3128568E-1,8.358599E-1,6.3196754E-1,7.243847E-1,0E0,8.9642525E-1,7.9628253E-1,1.3778787E0,1.0566878E0,0E0,0E0,1.4067335E0,7.8859836E-1,1.7185531E0,2.398057E-1,0E0,1.0037651E0,9.352585E-1,0E0,2.827947E-1,7.996417E-1,1.2057959E0,1.2721218E0,0E0,0E0,5.6626284E-1,1.6533438E0,1.688327E0,0E0,0E0,2.4711037E-1,1.4499675E0,8.996979E-1,0E0,0E0,0E0,0E0,0E0,0E0,0E0,0E0,0E0,0E0,0E0,0E0,0E0,0E0,0E0,0E0],"parents":[2147483647,0,0,1,1,2,2,3,3,5,5,6,6,7,7,8,8,11,11,12,12,13,13,14,14,16,16,17,17,19,19,20,20,21,21,22,22,25,25,26,26,27,27,30,30,31,31,32,32],"right_children":[2,4,6,8,-1,10,12,14,16,-1,-1,18,20,22,24,-1,26,28,-1,30,32,34,36,-1,-1,38,40,42,-1,-1,44,46,48,-1,-1,-1,-1,-1,-1,-1,-1,-1,-1,-1,-1,-1,-1,-1,-1],"split_conditions":[-4.4012118E-2,1.3735328E0,-9.172301E-1,1.9133016E-1,-1.7952743E-1,6.329424E-1,-3.5102615E-1,-4.3088174E-1,3.1577253E-1,-2.0317043E-1,5.4727096E-2,-4.2477626E-1,-9.1624916E-2,1.08265884E-1,-8.568012E-2,1.8959062E-1,8.911628E-3,1.8575803E0,-2.4620742E-1,-5.8191824E-1,7.092901E-1,5.3263E-1,-2.7820307E-1,-2.2753172E-1,-3.3775672E-2,9.7445935E-1,-3.8229052E-2,-6.1566025E-1,-1.3695446E-1,1.9208238E-2,4.550622E-1,6.329424E-1,5.5932236E-1,1.4176129E-1,-7.647728E-2,4.083418E-2,-2.5846872E-1,-9.717632E-2,6.181362E-2,-1.2271302E-1,1.553427E-1,-1.04568124E-1,2.0640182E-1,2.6556176E-1,4.282734E-2,4.7378022E-2,-1.5509783E-1,1.8636452E-1,-7.2648875E-2],"split_indices":[1,3,6,3,0,0,5,3,3,0,0,5,5,5,7,0,6,7,0,0,7,7,0,0,0,5,5,7,0,0,1,0,6,0,0,0,0,0,0,0,0,0,0,0,0,0,0,0,0],"split_type":[0,0,0,0,0,0,0,0,0,0,0,0,0,0,0,0,0,0,0,0,0,0,0,0,0,0,0,0,0,0,0,0,0,0,0,0,0,0,0,0,0,0,0,0,0,0,0,0,0],"sum_hessian":[7.113439E1,3.7260216E1,3.3874176E1,3.529412E1,1.9660935E0,3.245628E0,3.062855E1,1.6391972E1,1.8902147E1,1.5921836E0,1.6534444E0,7.417372E0,2.3211178E1,1.2376622E1,4.0153503E0,2.0261726E0,1.6875975E1,6.0894265E0,1.3279456E0,3.7892478E0,1.9421928E1,8.423807E0,3.9528146E0,2.8755705E0,1.1397798E0,9.644176E0,7.2317996E0,4.71151E0,1.3779162E0,1.115847E0,2.6734009E0,1.4715132E1,4.7067976E0,5.7578597E0,2.665948E0,1.7185632E0,2.2342513E0,7.775814E0,1.8683618E0,1.9061673E0,5.325632E0,1.8445599E0,2.8669505E0,1.5849453E0,1.0884554E0,1.14360285E1,3.2791023E0,3.6849072E0,1.0218905E0],"tree_param":{"num_deleted":"0","num_feature":"8","num_nodes":"49","size_leaf_vector":"1"}},{"base_weights":[-1.795046E-2,-2.0841031E-1,1.4705294E-2,3.592453E-2,-5.147485E-1,1.7956556E-1,-1.3380206E-2,-1.17046036E-1,2.9262093E-1,-1.7997152E-1,-3.9562937E-2,-1.4498986E-1,9.239948E-3,4.776378E-3,1.3990378E-1,-5.3531174E-2,1.2460966E-1,1.2394083E-1,-1.5425575E-1,-5.9785903E-2,3.4212342E-1,7.5444184E-2,-8.436832E-2,-2.9715344E-1,-1.887948E-2,4.4218525E-2,-1.33856E-1,2.365085E-1,3.9568856E-2],"categories":[],"categories_nodes":[],"categories_segments":[],"categories_sizes":[],"default_left":[0,0,0,0,0,0,0,0,0,0,0,0,0,0,0,0,0,0,0,0,0,0,0,0,0,0,0,0,0],"id":26,"left_children":[1,3,5,7,9,-1,11,-1,13,-1,-1,-1,15,-1,-1,17,19,21,23,25,27,-1,-1,-1,-1,-1,-1,-1,-1],"loss_changes":[4.3704292E-1,7.8782606E-1,1.0000211E0,8.417854E-1,7.170701E-2,0E0,6.2841374E-1,0E0,2.1960515E-1,0E0,0E0,0E0,4.1934437E-1,0E0,0E0,6.913264E-1,8.378645E-1,8.0293995E-1,1.8037556E0,1.0168892E0,7.8713787E-1,0E0,0E0,0E0,0E0,0E0,0E0,0E0,0E0],"parents":[2147483647,0,0,1,1,2,2,3,3,4,4,6,6,8,8,12,12,15,15,16,16,17,17,18,18,19,19,20,20],"right_children":[2,4,6,8,10,-1,12,-1,14,-1,-1,-1,16,-1,-1,18,20,22,24,26,28,-1,-1,-1,-1,-1,-1,-1,-1],"split_conditions":[-6.4999306E-1,2.4912283E-1,-5.5228746E-1,-2.7820307E-1,7.036344E-1,1.7956556E-1,-4.4170043E-1,-1.17046036E-1,-4.9310294E-1,-1.7997152E-1,-3.9562937E-2,-1.4498986E-1,1.4314076E-1,4.776378E-3,1.3990378E-1,-6.054707E-1,6.8909967E-1,1.0624268E0,-5.742786E-1,2.5355136E-1,4.7117695E-2,7.5444184E-2,-8.436832E-2,-2.9715344E-1,-1.887948E-2,4.4218525E-2,-1.33856E-1,2.365085E-1,3.9568856E-2],"split_indices":[5,2,5,0,2,0,5,0,3,0,0,0,1,0,0,1,3,3,1,3,2,0,0,0,0,0,0,0,0],"split_type":[0,0,0,0,0,0,0,0,0,0,0,0,0,0,0,0,0,0,0,0,0,0,0,0,0,0,0,0,0],"sum_hessian":[6.8775795E1,9.278467E0,5.9497326E1,5.652651E0,3.625816E0,1.7984768E0,5.769885E1,1.9297123E0,3.7229388E0,2.5023913E0,1.1234248E0,1.7145376E0,5.598431E1,1.8569448E0,1.8659939E0,3.6604366E1,1.9379944E1,1.3169619E1,2.3434748E1,1.0880894E1,8.499051E0,1.0305082E1,2.864536E0,1.3378589E0,2.2096888E1,7.4857273E0,3.3951662E0,1.8410679E0,6.657983E0],"tree_param":{"num_deleted":"0","num_feature":"8","num_nodes":"29","size_leaf_vector":"1"}},{"base_weights":[-1.6940026E-2,-6.4000353E-4,-1.21635705E-1,-1.8181363E-2,1.7145981E-1,-1.152415E-1,6.658972E-2,1.2767977E-1,-1.6728361E-1,-3.1057975E-1,1.1519671E-1,8.848592E-2,-2.7871698E-1,-1.564676E-1,2.7435469E-2,1.7433122E-1,-2.1993527E-1,-1.8079795E-1,7.476647E-2,2.5703063E-2,-1.24040134E-1,7.017975E-2,-6.865652E-2,-1.4296383E-1,5.725588E-2],"categories":[],"categories_nodes":[],"categories_segments":[],"categories_sizes":[],"default_left":[0,0,0,0,0,0,0,0,0,0,0,0,0,0,0,0,0,0,0,0,0,0,0,0,0],"id":27,"left_children":[1,3,-1,5,-1,7,9,-1,11,13,15,17,19,-1,-1,21,23,-1,-1,-1,-1,-1,-1,-1,-1],"loss_changes":[4.35669E-1,6.835204E-1,0E0,5.510529E-1,0E0,9.4810164E-1,6.9367886E-1,0E0,8.551375E-1,4.1813508E-1,6.8279254E-1,1.2168387E0,1.0438217E0,0E0,0E0,7.311745E-1,6.516949E-1,0E0,0E0,0E0,0E0,0E0,0E0,0E0,0E0],"parents":[2147483647,0,0,1,1,3,3,5,5,6,6,8,8,9,9,10,10,11,11,12,12,15,15,16,16],"right_children":[2,4,-1,6,-1,8,10,-1,12,14,16,18,20,-1,-1,22,24,-1,-1,-1,-1,-1,-1,-1,-1],"split_conditions":[2.6653285E0,2.0415182E0,-1.21635705E-1,-2.6234016E-1,1.7145981E-1,-1.2659156E0,-9.485844E-1,1.2767977E-1,-4.8070216E-1,7.9762006E-1,1.8575803E0,-4.9310294E-1,-9.9087244E-1,-1.564676E-1,2.7435469E-2,1.847803E0,6.026318E-1,-1.8079795E-1,7.476647E-2,2.5703063E-2,-1.24040134E-1,7.017975E-2,-6.865652E-2,-1.4296383E-1,5.725588E-2],"split_indices":[6,6,0,7,0,2,1,0,1,7,7,3,3,0,0,0,2,0,0,0,0,0,0,0,0],"split_type":[0,0,0,0,0,0,0,0,0,0,0,0,0,0,0,0,0,0,0,0,0,0,0,0,0],"sum_hessian":[6.783705E1,6.6066864E1,1.7701857E0,6.504109E1,1.0257707E0,3.0155073E1,3.488602E1,2.016885E0,2.813819E1,3.3673344E0,3.1518686E1,8.6014595E0,1.953673E1,2.0134194E0,1.353915E0,2.7199167E1,4.319519E0,1.1041876E0,7.4972715E0,5.3724976E0,1.4164231E1,2.406198E1,3.1371882E0,2.5601618E0,1.7593571E0],"tree_param":{"num_deleted":"0","num_feature":"8","num_nodes":"25","size_leaf_vector":"1"}},{"base_weights":[-1.5794318E-2,-4.268201E-2,2.175313E-1,-6.0521234E-2,2.8316274E-1,3.0176288E-1,-3.590197E-2,-3.1631153E-2,-2.9440245E-1,1.5038857E-1,-2.2181794E-2,4.5277506E-1,-2.5913114E-2,-3.4227982E-1,-2.1198317E-3,-4.8097444E-1,8.547439E-2,2.1106312E-2,1.7413276E-1,1.1744776E-2,-1.4737706E-1,1.0052994E-1,-8.348919E-2,-6.3543427E-1,7.953432E-3,1.1871455E-1,-3.2085422E-2,-2.3063576E-1,-8.87033E-3,-2.5919715E-1,-1.767541E-2],"categories":[],"categories_nodes":[],"categories_segments":[],"categories_sizes":[],"default_left":[0,0,0,0,0,0,0,0,0,0,0,0,0,0,0,0,0,0,0,0,0,0,0,0,0,0,0,0,0,0,0],"id":28,"left_children":[1,3,5,7,9,11,-1,13,15,-1,-1,17,-1,19,21,23,-1,-1,-1,-1,-1,25,27,29,-1,-1,-1,-1,-1,-1,-1],"loss_changes":[4.3444762E-1,3.7522793E-1,2.3967052E-1,3.908953E-1,2.9986063E-1,3.918633E-1,0E0,4.9284565E-1,8.278675E-1,0E0,0E0,1.7851424E-1,0E0,2.8429615E-1,4.2747134E-1,4.249711E-1,0E0,0E0,0E0,0E0,0E0,1.4288851E0,1.0316715E0,4.803412E-1,0E0,0E0,0E0,0E0,0E0,0E0,0E0],"parents":[2147483647,0,0,1,1,2,2,3,3,4,4,5,5,7,7,8,8,11,11,13,13,14,14,15,15,21,21,22,22,23,23],"right_children":[2,4,6,8,10,12,-1,14,16,-1,-1,18,-1,20,22,24,-1,-1,-1,-1,-1,26,28,30,-1,-1,-1,-1,-1,-1,-1],"split_conditions":[9.229444E-1,1.7207184E0,2.1225705E0,9.5614076E-1,1.6757439E-1,2.1596923E0,-3.590197E-2,-8.378839E-1,3.9267793E-1,1.5038857E-1,-2.2181794E-2,-6.1566025E-1,-2.5913114E-2,-8.806503E-1,5.496167E-2,1.3096497E0,8.547439E-2,2.1106312E-2,1.7413276E-1,1.1744776E-2,-1.4737706E-1,-8.042089E-1,7.466992E-2,-2.8757274E-1,7.953432E-3,1.1871455E-1,-3.2085422E-2,-2.3063576E-1,-8.87033E-3,-2.5919715E-1,-1.767541E-2],"split_indices":[1,5,7,2,6,4,0,5,1,0,0,7,0,7,5,2,0,0,0,0,0,3,5,6,0,0,0,0,0,0,0],"split_type":[0,0,0,0,0,0,0,0,0,0,0,0,0,0,0,0,0,0,0,0,0,0,0,0,0,0,0,0,0,0,0],"sum_hessian":[6.677031E1,6.060362E1,6.166695E0,5.822993E1,2.3736866E0,5.0182676E0,1.1484275E0,5.283834E1,5.39159E0,1.2229015E0,1.1507851E0,3.4928079E0,1.5254596E0,3.664631E0,4.917371E1,4.206592E0,1.1849983E0,1.2624089E0,2.230399E0,1.2363616E0,2.4282694E0,2.1639448E1,2.7534262E1,3.0317254E0,1.1748664E0,8.557458E0,1.308199E1,1.0414003E0,2.649286E1,1.8139544E0,1.217771E0],"tree_param":{"num_deleted":"0","num_feature":"8","num_nodes":"31","size_leaf_vector":"1"}},{"base_weights":[-1.4596989E-2,-6.1091788E-2,1.07789285E-1,-3.0800144E-4,-4.9453086E-1,-1.801304E-1,1.8654299E-1,-3.8624447E-2,4.4664884E-1,-7.7958924E-1,5.0259106E-2,3.7713793E-1,-6.3473195E-2,7.592737E-3,-4.5012692E-1,2.2473069E-1,-3.2041643E-2,-5.1899996E-2,-2.9881546E-1,5.260152E-1,-1.0601171E-1,1.3549949E-1,-2.843584E-1,1.3790517E-1,-1.8619479E-1,-1.7745483E-1,-1.4451626E-2,-6.501223E-2,6.9300544E-1,-5.0058657E-1,1.18992634E-1,6.7452185E-2,-9.347023E-2,-9.27802E-2,1.5093625E-1,-5.4531395E-3,2.5006545E-1,-2.1359156E-1,-1.3207761E-2],"categories":[],"categories_nodes":[],"categories_segments":[],"categories_sizes":[],"default_left":[0,0,0,0,0,0,0,0,0,0,0,0,0,0,0,0,0,0,0,0,0,0,0,0,0,0,0,0,0,0,0,0,0,0,0,0,0,0,0],"id":29,"left_children":[1,3,5,7,9,-1,11,13,15,17,-1,19,21,23,25,-1,-1,-1,-1,27,-1,-1,29,31,33,-1,-1,-1,35,37,-1,-1,-1,-1,-1,-1,-1,-1,-1],"loss_changes":[3.8517237E-1,1.2869346E0,1.1538141E0,7.68138E-1,1.2644242E0,0E0,8.612965E-1,7.889531E-1,6.7284393E-1,4.023285E-1,0E0,1.2859708E0,1.0907538E0,9.882339E-1,2.0946944E-1,0E0,0E0,0E0,0E0,1.2421863E0,0E0,0E0,1.160522E0,9.830582E-1,1.4918685E0,0E0,0E0,0E0,7.5746655E-1,4.8986006E-1,0E0,0E0,0E0,0E0,0E0,0E0,0E0,0E0,0E0],"parents":[2147483647,0,0,1,1,2,2,3,3,4,4,6,6,7,7,8,8,9,9,11,11,12,12,13,13,14,14,19,19,22,22,23,23,24,24,28,28,29,29],"right_children":[2,4,6,8,10,-1,12,14,16,18,-1,20,22,24,26,-1,-1,-1,-1,28,-1,-1,30,32,34,-1,-1,-1,36,38,-1,-1,-1,-1,-1,-1,-1,-1,-1],"split_conditions":[3.5929763E-1,1.3000208E-1,-2.4421817E-1,1.9600524E-2,9.3798447E-1,-1.801304E-1,9.452752E-1,-2.1818745E-1,6.2062662E-2,-5.790818E-1,5.0259106E-2,1.0544157E0,4.7117695E-2,4.5112795E-1,7.312182E-1,2.2473069E-1,-3.2041643E-2,-5.1899996E-2,-2.9881546E-1,-4.647544E-1,-1.0601171E-1,1.3549949E-1,7.092901E-1,5.5932236E-1,1.360915E0,-1.7745483E-1,-1.4451626E-2,-6.501223E-2,-5.1640224E-1,6.026318E-1,1.18992634E-1,6.7452185E-2,-9.347023E-2,-9.27802E-2,1.5093625E-1,-5.4531395E-3,2.5006545E-1,-2.1359156E-1,-1.3207761E-2],"split_indices":[4,4,3,4,3,0,4,4,4,6,0,5,2,2,6,0,0,0,0,5,0,0,7,6,5,0,0,0,6,2,0,0,0,0,0,0,0,0,0],"split_type":[0,0,0,0,0,0,0,0,0,0,0,0,0,0,0,0,0,0,0,0,0,0,0,0,0,0,0,0,0,0,0,0,0,0,0,0,0,0,0],"sum_hessian":[6.553175E1,4.7853092E1,1.7678661E1,4.284534E1,5.0077515E0,1.1062312E0,1.657243E1,4.0303787E1,2.5415552E0,3.3764584E0,1.6312932E0,9.11519E0,7.4572406E0,3.7116646E1,3.1871426E0,1.4148567E0,1.1266986E0,1.3612005E0,2.015258E0,7.804562E0,1.3106278E0,1.924415E0,5.5328255E0,2.23654E1,1.4751244E1,2.0089045E0,1.1782383E0,1.377982E0,6.42658E0,4.400518E0,1.1323076E0,1.915942E1,3.205981E0,1.29843235E1,1.7669202E0,1.2041384E0,5.2224417E0,2.6255004E0,1.7750175E0],"tree_param":{"num_deleted":"0","num_feature":"8","num_nodes":"39","size_leaf_vector":"1"}},{"base_weights":[-1.5291743E-2,-7.438278E-2,9.9070534E-2,-4.8815515E-2,-1.5810359E-1,-4.476738E-2,3.0253613E-1,1.8385325E-2,-2.4127515E-1,1.5309401E-1,-1.3919918E-1,1.6716975E-1,1.3029021E-1,-6.1036173E-2,4.469526E-1,-5.804502E-1,-4.4168964E-2,-4.2036867E-1,1.6262528E-1,-2.2379124E-1,3.8437974E-1,-1.1959579E-1,1.2958242E-1,2.4153942E-2,5.195876E-1,-2.0497715E-1,-4.4797115E-2,2.7577558E-1,-2.801623E-1,-5.801245E-1,7.246864E-2,-2.1607442E-1,4.5326293E-1,-4.7058487E-4,-1.0049954E-1,-3.6029298E-2,5.8001304E-1,-7.0819193E-3,-1.2986122E-1,2.0993839E-1,4.0120512E-2,1.4881104E-1,-2.545513E-2,-1.4792362E-1,7.993792E-2,-2.290085E-1,3.737622E-2,-1.3275571E-1,1.4210034E-2,2.2669913E-1,-6.3370064E-2,2.0623073E-1,5.181664E-2],"categories":[],"categories_nodes":[],"categories_segments":[],"categories_sizes":[],"default_left":[0,0,0,0,0,0,0,0,0,0,0,0,0,0,0,0,0,0,0,0,0,0,0,0,0,0,0,0,0,0,0,0,0,0,0,0,0,0,0,0,0,0,0,0,0,0,0,0,0,0,0,0,0],"id":30,"left_children":[1,3,5,7,-1,9,11,13,15,-1,17,-1,19,21,23,25,27,29,31,33,35,37,-1,-1,39,-1,-1,41,43,45,-1,47,49,-1,-1,-1,51,-1,-1,-1,-1,-1,-1,-1,-1,-1,-1,-1,-1,-1,-1,-1,-1],"loss_changes":[4.449995E-1,4.750007E-1,6.717578E-1,5.483833E-1,0E0,8.073474E-1,3.416909E-1,1.1199518E0,7.067674E-1,0E0,1.1538154E0,0E0,7.102947E-1,8.5890704E-1,9.495139E-2,7.2791934E-2,6.821437E-1,8.6987615E-1,8.562529E-1,8.673559E-2,5.046754E-1,7.6492584E-1,0E0,0E0,1.9189024E-1,0E0,0E0,3.522431E-1,7.2570646E-1,8.5091126E-1,0E0,2.3982365E-1,1.0077897E0,0E0,0E0,0E0,2.7732491E-2,0E0,0E0,0E0,0E0,0E0,0E0,0E0,0E0,0E0,0E0,0E0,0E0,0E0,0E0,0E0,0E0],"parents":[2147483647,0,0,1,1,2,2,3,3,5,5,6,6,7,7,8,8,10,10,12,12,13,13,14,14,15,15,16,16,17,17,18,18,19,19,20,20,21,21,24,24,27,27,28,28,29,29,31,31,32,32,36,36],"right_children":[2,4,6,8,-1,10,12,14,16,-1,18,-1,20,22,24,26,28,30,32,34,36,38,-1,-1,40,-1,-1,42,44,46,-1,48,50,-1,-1,-1,52,-1,-1,-1,-1,-1,-1,-1,-1,-1,-1,-1,-1,-1,-1,-1,-1],"split_conditions":[1.4314076E-1,1.1915556E0,6.8909967E-1,6.2096006E-1,-1.5810359E-1,-7.1040154E-1,-7.039903E-1,9.366575E-1,9.7618975E-2,1.5309401E-1,3.5597E-1,1.6716975E-1,9.097992E-2,8.263812E-1,-6.309053E-1,4.666589E-3,4.0062666E-1,6.118287E-1,-7.2234917E-1,8.29368E-1,-8.9211166E-2,5.909355E-1,1.2958242E-1,2.4153942E-2,-3.8320705E-2,-2.0497715E-1,-4.4797115E-2,9.366575E-1,4.550975E-2,9.229444E-1,7.246864E-2,5.0162923E-1,1.4112087E-1,-4.7058487E-4,-1.0049954E-1,-3.6029298E-2,1.6757439E-1,-7.0819193E-3,-1.2986122E-1,2.0993839E-1,4.0120512E-2,1.4881104E-1,-2.545513E-2,-1.4792362E-1,7.993792E-2,-2.290085E-1,3.737622E-2,-1.3275571E-1,1.4210034E-2,2.2669913E-1,-6.3370064E-2,2.0623073E-1,5.181664E-2],"split_indices":[1,4,3,7,0,2,7,0,2,0,7,0,7,4,5,3,2,6,6,1,5,6,0,0,5,0,0,0,6,1,0,2,6,0,0,0,6,0,0,0,0,0,0,0,0,0,0,0,0,0,0,0,0],"split_type":[0,0,0,0,0,0,0,0,0,0,0,0,0,0,0,0,0,0,0,0,0,0,0,0,0,0,0,0,0,0,0,0,0,0,0,0,0,0,0,0,0,0,0,0,0,0,0,0,0,0,0,0,0],"sum_hessian":[6.3759426E1,4.2268738E1,2.149069E1,4.105741E1,1.2113255E0,1.3047131E1,8.443559E0,3.1102034E1,9.955379E0,1.2566079E0,1.1790523E1,2.5047464E0,5.9388127E0,2.6962889E1,4.1391444E0,2.9442067E0,7.0111713E0,5.9007883E0,5.8897343E0,2.5310128E0,3.4078E0,2.477708E1,2.1858087E0,1.0335257E0,3.1056187E0,1.9050963E0,1.0391103E0,2.9046547E0,4.106517E0,4.853091E0,1.0476977E0,2.668821E0,3.220913E0,1.1823859E0,1.3486269E0,1.0601393E0,2.3476608E0,1.978897E1,4.9881105E0,1.5623249E0,1.543294E0,1.5701555E0,1.3344992E0,3.0258586E0,1.0806581E0,3.7855563E0,1.0675344E0,1.0696361E0,1.599185E0,2.1192718E0,1.1016413E0,1.3134221E0,1.0342387E0],"tree_param":{"num_deleted":"0","num_feature":"8","num_nodes":"53","size_leaf_vector":"1"}},{"base_weights":[-5.5399095E-3,-1.83937E-1,2.5534129E-2,-2.770629E-1,5.6872975E-2,-5.866943E-2,1.18984126E-1,-5.8226813E-2,-1.583378E-1,4.627981E-2,-4.2965573E-1,-1.6628748E-1,1.9852062E-1,1.6770571E-1,-1.2037558E-1,-1.6636513E-1,1.7629325E-1,2.923578E-2,-6.481406E-1,-1.6762528E-1,1.4502046E-1,2.4227026E-1,-1.0007481E-1,-6.901696E-2,1.2817582E-1,8.842617E-2,-2.8775293E-1,3.999268E-1,-1.1612097E-2,-6.4371107E-3,-8.25942E-1,1.3876197E-1,-4.5699086E-2,1.5040462E-1,5.9833086E-1,-1.2088126E-2,-2.0052798E-1,-7.6996447E-3,1.6923799E-1,-8.8845156E-2,8.556097E-2,-7.2140485E-2,-2.8933337E-1,7.2491616E-2,-1.907424E-1,2.1305288E-1,4.4448603E-2],"categories":[],"categories_nodes":[],"categories_segments":[],"categories_sizes":[],"default_left":[0,0,0,0,0,0,0,0,0,0,0,0,0,0,0,0,0,0,0,0,0,0,0,0,0,0,0,0,0,0,0,0,0,0,0,0,0,0,0,0,0,0,0,0,0,0,0],"id":31,"left_children":[1,3,5,7,-1,9,11,13,-1,15,17,19,21,23,-1,25,27,-1,29,-1,31,33,-1,-1,-1,-1,35,37,39,-1,41,-1,-1,43,45,-1,-1,-1,-1,-1,-1,-1,-1,-1,-1,-1,-1],"loss_changes":[3.5466993E-1,3.8252625E-1,4.3697062E-1,4.0822607E-1,0E0,1.1651181E0,6.2816983E-1,4.85467E-1,0E0,6.8817174E-1,8.2134235E-1,8.4622955E-1,5.689272E-1,5.069447E-1,0E0,6.1973417E-1,6.4649916E-1,0E0,5.1544094E-1,0E0,4.7517365E-1,5.6269264E-1,0E0,0E0,0E0,0E0,7.333687E-1,5.038167E-1,8.6752915E-1,0E0,6.817293E-2,0E0,0E0,1.3871846E0,8.3919525E-2,0E0,0E0,0E0,0E0,0E0,0E0,0E0,0E0,0E0,0E0,0E0,0E0],"parents":[2147483647,0,0,1,1,2,2,3,3,5,5,6,6,7,7,9,9,10,10,11,11,12,12,13,13,15,15,16,16,18,18,20,20,21,21,26,26,27,27,28,28,30,30,33,33,34,34],"right_children":[2,4,6,8,-1,10,12,14,-1,16,18,20,22,24,-1,26,28,-1,30,-1,32,34,-1,-1,-1,-1,36,38,40,-1,42,-1,-1,44,46,-1,-1,-1,-1,-1,-1,-1,-1,-1,-1,-1,-1],"split_conditions":[-8.327845E-1,1.8095666E-1,-4.4012118E-2,-9.9087244E-1,5.6872975E-2,-1.9997285E-1,-7.923203E-1,-9.223266E-1,-1.583378E-1,1.9133016E-1,-5.8191824E-1,2.367172E-1,2.8145654E0,-2.6234016E-1,-1.2037558E-1,-8.806503E-1,-4.0502086E-1,2.923578E-2,-3.0639127E-1,-1.6762528E-1,5.4863864E-1,6.1947215E-1,-1.0007481E-1,-6.901696E-2,1.2817582E-1,8.842617E-2,5.496167E-2,-6.1191386E-1,-6.67855E-1,-6.4371107E-3,-8.568012E-2,1.3876197E-1,-4.5699086E-2,5.640729E-1,7.669837E-1,-1.2088126E-2,-2.0052798E-1,-7.6996447E-3,1.6923799E-1,-8.8845156E-2,8.556097E-2,-7.2140485E-2,-2.8933337E-1,7.2491616E-2,-1.907424E-1,2.1305288E-1,4.4448603E-2],"split_indices":[6,4,1,3,0,1,7,6,0,3,0,1,6,7,0,7,4,0,2,0,1,6,0,0,0,0,5,6,1,0,7,0,0,6,1,0,0,0,0,0,0,0,0,0,0,0,0],"split_type":[0,0,0,0,0,0,0,0,0,0,0,0,0,0,0,0,0,0,0,0,0,0,0,0,0,0,0,0,0,0,0,0,0,0,0,0,0,0,0,0,0,0,0,0,0,0,0],"sum_hessian":[6.2131985E1,8.487226E0,5.3644756E1,7.000147E0,1.487079E0,2.8414196E1,2.523056E1,4.3957663E0,2.6043804E0,2.283079E1,5.583407E0,5.2630386E0,1.9967522E1,2.958353E0,1.4374132E0,8.556504E0,1.4274285E1,1.7984637E0,3.784943E0,1.9764694E0,3.286569E0,1.8953827E1,1.0136948E0,1.2130092E0,1.7453438E0,1.4854573E0,7.071047E0,6.0023317E0,8.271954E0,1.0842047E0,2.7007384E0,1.3207254E0,1.9658437E0,1.6197256E1,2.756571E0,4.9555264E0,2.1155207E0,1.9059529E0,4.096379E0,4.224463E0,4.0474906E0,1.0401307E0,1.6606077E0,1.5133753E1,1.0635037E0,1.7453561E0,1.0112149E0],"tree_param":{"num_deleted":"0","num_feature":"8","num_nodes":"47","size_leaf_vector":"1"}},{"base_weights":[-1.2283352E-2,6.7236754E-3,-2.3353088E-1,-1.2903716E-2,1.3068251E-1,-4.2638254E-1,3.0771859E-2,-3.0893016E-1,1.1354373E-2,-1.2833251E-2,-1.8603806E-1,-1.6725108E-1,2.3804555E-2,3.0184025E-1,-1.976551E-2,-6.4618364E-2,5.540502E-1,-6.058695E-2,1.5956874E-1,2.1548069E-1,2.8863357E-2,-2.4949508E-3,-1.0449948E-1,-1.6274791E-2,1.07574545E-1],"categories":[],"categories_nodes":[],"categories_segments":[],"categories_sizes":[],"default_left":[0,0,0,0,0,0,0,0,0,0,0,0,0,0,0,0,0,0,0,0,0,0,0,0,0],"id":32,"left_children":[1,3,5,7,-1,9,-1,11,13,-1,-1,-1,-1,15,17,-1,19,21,23,-1,-1,-1,-1,-1,-1],"loss_changes":[2.598212E-1,4.8986068E-1,3.6046085E-1,4.0549457E-1,0E0,2.1864116E-1,0E0,4.5686615E-1,4.824015E-1,0E0,0E0,0E0,0E0,7.926379E-1,3.6503142E-1,0E0,2.1279943E-1,6.0273224E-1,4.1416952E-1,0E0,0E0,0E0,0E0,0E0,0E0],"parents":[2147483647,0,0,1,1,2,2,3,3,5,5,7,7,8,8,13,13,14,14,16,16,17,17,18,18],"right_children":[2,4,6,8,-1,10,-1,12,14,-1,-1,-1,-1,16,18,-1,20,22,24,-1,-1,-1,-1,-1,-1],"split_conditions":[1.8575803E0,1.5925903E0,6.026318E-1,-8.378839E-1,1.3068251E-1,1.9862154E-1,3.0771859E-2,-3.1940955E-1,-5.5228746E-1,-1.2833251E-2,-1.8603806E-1,-1.6725108E-1,2.3804555E-2,-2.7820307E-1,1.0943938E0,-6.4618364E-2,-1.7614213E-1,8.551382E-1,-5.8191824E-1,2.1548069E-1,2.8863357E-2,-2.4949508E-3,-1.0449948E-1,-1.6274791E-2,1.07574545E-1],"split_indices":[7,7,2,5,0,2,0,6,5,0,0,0,0,0,5,0,6,2,0,0,0,0,0,0,0],"split_type":[0,0,0,0,0,0,0,0,0,0,0,0,0,0,0,0,0,0,